tree
version=v4
num_class=1
num_tree_per_iteration=1
label_index=0
max_feature_idx=18
objective=binary sigmoid:1
feature_names=obi momentum_1m momentum_2m momentum_5m momentum_10m hurst fracdiff_close vol_1m vol_5m vol_30m vol_60m vwap_dev_5m vwap_dev_30m trade_flow_imb_5m trade_flow_imb_30m hl_range vol_ratio_5m vol_ratio_30m trades_intensity
feature_infos=[-0.99627687620687788:0.99735611352640374] [-0.020838332896016949:0.022992565407785347] [-0.022341724074048948:0.029409372993990181] [-0.026503791499679796:0.037808065313792626] [-0.033700021085143403:0.038701722697615973] [-0.17904516669206805:0.10861636932350138] [-560.64200722651003:3155.5006078766746] [0:0.017965740441835652] [0:0.014150329657706368] [1.9312455667397878e-05:0.0061307597359011763] [2.9871110080766814e-05:0.004463508706593484] [-0.012725903816371842:0.016844110174328925] [-0.023331687134809678:0.035835008543941643] [-0.96163572996641977:0.90426948751940261] [-0.66028039286935858:0.63773000764737697] [1.030395640474488e-07:0.024861787963623656] [0.010883227187554707:4.9344330827627427] [0.016081658774413254:26.170827852696362] [0.03252385082393755:19.057358659886329]
tree_sizes=1021 1058 1048 949 1050 943 1048 1060 1059 1050 1059 1048 1048 1045 1050 1052 1049 1048 1048 1055 1060 1053 1059 1056 1066 1045 1050 1048 938 1057 1056 1053 1052 1053 1049 1051 1057 1049 948 1045 1041 1045 1055 1043 1049 1049 1051 1052 1055 1043 1057 1061 1049 1059 1058 1056 1059 1055 1049 1044 1050 1057 1058 1058 1043 1050 1061 1055 1046 1046 1057 1048 1055 1054 1053 1041 1045 1049 1050 1047 1050 1042 1053 1051 1042 1048 1050 1052 1061 1047 1056 1050 1045 1053 1050 1052 1043 1046 1037 1051 1046 1049 1051 1049 942 1050 1056 1061 1054 1048 1043 1051 1062 1054 1054 1046 941 1048 1050 1059 1057 1043 1058 1042 1049 1051 1060 1060 1047 1052 1043 1061 1051 1048 1052 1059 1049 1049 1034 1054 1053 1047 937 1060 1054 1053 1057 1049 1052 1060 1054 1047 1049 1058 1056 1041 1046 1050 1040 1039 1051 1042 1051 1043 1049 1057 1047 1053 1054 1052 1045 1034 940 1049 1062 1047 1054 1046 1059 1054 1045 1040 1052 1053 1061 1055 1058 1050 1058 1059 1065 937 934 1046 1047 947 1054 1066 937 928 1059 1042 1051 1051 1062 1055 1050 1046 1053 940 940 1052 1037 1048 1047 1052 1062 1055 1046 1055 1050 1038 1062 1048 1058 940 1048 1041 1049 1051 1052 1051 1060 1047 1057 1058 1043 1042 937 1052 935 1053 1047 1055 937 1055 942 1061 1059 1056 1053 1043 1049 1048 1058 1057 938 1053 1058 1061 1056 1051 1061 937 1045 1056 1049 946 1053 1051 1052 1049 1048 935 1044 1044 1039 1057 1057 1039 1055 1050 1046 1058 1058 1043 1051 1057 1041 1058 1046 1055 1050 1045 1064 1048 942 941 1059 1049 940 1044 1054 935 1053 1051 1059 1044 940 1042 1042 934 1048 1051 939 1054 1064 1043 1063 1051 1051 1051 1058 1050 1053 1043 1046 1049 947 1044 1049 1058 1055 1047 1044 1044 937 935 932 1052 1058 1054 1057 948

Tree=0
num_leaves=8
num_cat=0
split_feature=6 11 16 8 6 10 10
split_gain=246.64 33.4585 33.8666 27.5467 31.8374 22.8918 7.19956
threshold=1254.8899193786058 -6.8672769608045704e-05 2.7400510249142491 0.0016299532054707508 1212.807682700068 0.00033905067118178097 0.0010077879173739208
decision_type=2 2 2 2 2 2 2
left_child=3 5 -3 4 -1 -2 -5
right_child=1 2 -4 6 -6 -7 -8
leaf_value=-0.011116705728152236 -0.011913213161342267 -0.013263436067365042 -0.015204277669740199 -0.01631944671923034 -0.012010267210153032 -0.012929289859548802 -0.013251513641656562
leaf_weight=3911.5926180332899 1470.1908472329378 13765.696140602231 490.48026564717293 42.498290091753006 4629.5637306421995 5791.5169797390699 327.48682364821434
leaf_count=15647 5881 55065 1962 170 18519 23167 1310
internal_value=-0.0127038 -0.0131257 -0.0133307 -0.0116854 -0.0116007 -0.0127231 -0.0136146
internal_weight=30429 21517.9 14256.2 8911.14 8541.16 7261.71 369.985
internal_count=121721 86075 57027 35646 34166 29048 1480
is_linear=0
shrinkage=1


Tree=1
num_leaves=8
num_cat=0
split_feature=3 14 2 15 7 7 10
split_gain=177.215 30.8828 24.4746 22.7559 17.6888 12.5002 12.463
threshold=-0.00022854013581614468 -0.058537910366976274 -9.4094498403423713e-05 0.00045113430080520313 0.0020285903108735251 4.5142439267837358e-05 0.00027105168936989094
decision_type=2 2 2 2 2 2 2
left_child=3 5 -3 6 -5 -2 -1
right_child=1 2 -4 4 -6 -7 -8
leaf_value=0.001035974127181802 -0.0013194116446200378 -0.00012970543720944677 -0.00087008030285474971 0.00093412441552551595 -0.0014233962160346298 4.7894766085596679e-05 1.4014974626934147e-05
leaf_weight=783.22060884535313 374.23396860063076 3196.6224062293768 9198.1042035222054 7937.4513301253319 166.9924178570509 5527.5193851739168 3244.8726849555969
leaf_count=3133 1497 12787 36794 31751 668 22111 12980
internal_value=-2.02295e-05 -0.0004728 -0.000679274 0.000661984 0.0008845 -3.89233e-05 0.000214051
internal_weight=30429 18296.5 12394.7 12132.5 8104.44 5901.75 4028.09
internal_count=121721 73189 49581 48532 32419 23608 16113
is_linear=0
shrinkage=0.007282


Tree=2
num_leaves=8
num_cat=0
split_feature=12 6 6 8 12 10 8
split_gain=268.894 94.1715 50.3505 36.7524 36.5946 31.5366 12.6113
threshold=-0.00022761852511369283 1260.2350273759823 1238.4740242245773 0.0016299532054707508 0.0036303459699517393 8.8466055533254959e-05 0.00014646141459620973
decision_type=2 2 2 2 2 2 2
left_child=2 6 3 -1 -3 -4 -2
right_child=1 4 5 -5 -6 -7 -8
leaf_value=0.0015220398048783007 -0.00073363077305363151 -0.00077286046365900984 -0.0068176930825124106 -0.0012133843153827525 -0.002303173702064963 0.00045298314944086762 0.0006254581477624163
leaf_weight=4577.6141299754381 403.73411077260971 13241.644180059433 27.248834237456322 270.4869779497385 881.95766870677471 7941.1808611750603 3085.1385860592127
leaf_count=18311 1615 52969 109 1082 3528 31766 12341
internal_value=-2.00828e-05 -0.000604049 0.000782135 0.00136743 -0.000868803 0.00042582 0.000465991
internal_weight=30429 17612.5 12816.5 4848.1 14123.6 7968.43 3488.87
internal_count=121721 70453 51268 19393 56497 31875 13956
is_linear=0
shrinkage=0.007282


Tree=3
num_leaves=7
num_cat=0
split_feature=12 12 10 10 17 2
split_gain=257.354 50.2459 37.2821 30.9402 26.5403 13.8604
threshold=-0.00022761852511369283 0.0030392062793967735 0.00067543024947825769 8.8466055533254959e-05 0.21523744778517592 0.00083897584754193675
decision_type=2 2 2 2 2 2
left_child=3 2 -2 -1 -5 -3
right_child=1 5 -4 4 -6 -7
leaf_value=-0.0062802574197518782 -0.00068036744972384885 -0.001077337981517244 8.9610192313948652e-05 -0.00040517308245703403 0.00089207667080529564 -0.0025273336098853467
leaf_weight=28.247203662991524 11509.944560736418 635.71565203368664 4680.5372293591499 891.96810522675514 11867.369812533259 791.95017382502556
leaf_count=113 46042 2543 18723 3568 47471 3168
internal_value=-2.41313e-06 -0.000573196 -0.000457562 0.000783717 0.000800961 -0.00188149
internal_weight=30405.7 17618.1 16190.5 12787.6 12759.3 1427.67
internal_count=121628 70476 64765 51152 51039 5711
is_linear=0
shrinkage=0.007282


Tree=4
num_leaves=8
num_cat=0
split_feature=12 6 6 12 8 10 8
split_gain=253.615 84.577 53.4114 38.77 31.9079 27.6432 12.3409
threshold=-0.00022761852511369283 1260.2350273759823 1238.4740242245773 0.0036303459699517393 0.0016299532054707508 8.8466055533254959e-05 0.00014964765749932046
decision_type=2 2 2 2 2 2 2
left_child=2 6 4 -3 -1 -4 -2
right_child=1 3 5 -5 -6 -7 -8
leaf_value=0.0015254279478865811 -0.00071927768782501888 -0.00072180341665725202 -0.0062654906248206599 -0.002298644256729833 -0.0010493755979002889 0.00043711646954074958 0.00060305730004929644
leaf_weight=4563.1664954423904 419.47982536256313 13235.773441001773 28.245165318250656 879.67733627557755 264.48667120933533 7931.7395143210888 3083.1421238034964
leaf_count=18253 1678 52946 113 3519 1058 31728 12333
internal_value=-2.40122e-06 -0.000569026 0.000777993 -0.000820462 0.00138242 0.000411192 0.00044257
internal_weight=30405.7 17618.1 12787.6 14115.5 4827.65 7959.98 3502.62
internal_count=121628 70476 51152 56465 19311 31841 14011
is_linear=0
shrinkage=0.007282


Tree=5
num_leaves=7
num_cat=0
split_feature=12 12 7 9 17 14
split_gain=249.931 48.9593 32.0848 27.9474 26.4116 16.5936
threshold=-0.00022761852511369283 0.0030392062793967735 4.5142439267837358e-05 8.9134500255391315e-05 0.21523744778517592 -0.068697821490129388
decision_type=2 2 2 2 2 2
left_child=3 2 -2 -1 -5 -3
right_child=1 5 -4 4 -6 -7
leaf_value=-0.0048881377734006229 -0.0018118077355007676 0.00011237693044698179 -0.00037343408934529718 -0.00041233907129229472 0.00088299400508908108 -0.0021648555540623991
leaf_weight=41.492817521095276 865.94524042308331 189.23418276011944 15324.422135308385 890.21941612660885 11855.967432245612 1238.3877531290054
leaf_count=166 3464 757 61301 3561 47425 4954
internal_value=-2.3906e-06 -0.000564888 -0.000450742 0.000772312 0.000792096 -0.00185635
internal_weight=30405.7 17618 16190.4 12787.7 12746.2 1427.62
internal_count=121628 70476 64765 51152 50986 5711
is_linear=0
shrinkage=0.007282


Tree=6
num_leaves=8
num_cat=0
split_feature=12 6 6 12 9 17 3
split_gain=255.233 92.8538 47.1783 31.238 22.6669 14.3994 13.8341
threshold=-0.00020219688409930619 1260.2350273759823 1237.4855952971814 0.0036303459699517393 8.9134500255391315e-05 0.2051206742289293 -0.00049504004649773164
decision_type=2 2 2 2 2 2 2
left_child=2 6 5 -3 -4 -1 -2
right_child=1 3 4 -5 -6 -7 -8
leaf_value=-0.00061272544161291036 0.0013469983555887321 -0.000760620812201657 -0.0045490699909754451 -0.0021801302653842261 0.00045394263628435988 0.0014133182753208948 0.00023781964064808824
leaf_weight=187.24589730799198 768.22734561562538 13063.158113718033 43.739996194839478 875.64060306549072 8188.5277663320303 4639.1950148195028 2652.8956769704819
leaf_count=749 3073 52256 175 3503 32755 18557 10612
internal_value=-7.65992e-06 -0.000586212 0.000761193 -0.000850165 0.000425747 0.00133298 0.000487459
internal_weight=30418.6 17359.9 13058.7 13938.8 8232.27 4826.44 3421.12
internal_count=121680 69444 52236 55759 32930 19306 13685
is_linear=0
shrinkage=0.007282


Tree=7
num_leaves=8
num_cat=0
split_feature=12 12 12 9 1 7 5
split_gain=251.646 37.5514 36.2841 35.3419 28.9988 27.3851 18.0202
threshold=-2.3054596155325378e-05 -0.00054330615553123678 0.0030392062793967735 0.00024134475579415079 -0.00016565069853176245 5.4545191755263964e-05 -0.026793280627465398
decision_type=2 2 2 2 2 2 2
left_child=1 3 4 -1 -2 -3 -4
right_child=2 5 6 -5 -6 -7 -8
leaf_value=0.0031639900508268117 1.70335733664717e-05 -0.0014398222330606191 -0.0035786154999337279 0.00083997138595077211 -0.0007372444015224846 0.00033072218677082443 -0.0013931184261444672
leaf_weight=356.49297921359539 3623.559606179595 514.21371328830719 239.46941702067852 9690.8349110037088 10508.303855031729 4306.3439601063728 1179.3517593741417
leaf_count=1426 14495 2057 958 38764 42036 17226 4718
internal_value=-7.60748e-06 0.000669563 -0.000655239 0.000923152 -0.000543591 0.000140842 -0.00176464
internal_weight=30418.6 14867.9 15550.7 10047.3 14131.9 4820.56 1418.82
internal_count=121680 59473 62207 40190 56531 19283 5676
is_linear=0
shrinkage=0.007282


Tree=8
num_leaves=8
num_cat=0
split_feature=12 12 12 9 7 7 14
split_gain=247.997 37.0071 35.7604 34.8308 28.68 26.9896 15.1368
threshold=-2.3054596155325378e-05 -0.00054330615553123678 0.0030392062793967735 0.00024134475579415079 0.00021741880635865415 5.4545191755263964e-05 -0.16007094896116017
decision_type=2 2 2 2 2 2 2
left_child=1 3 4 -1 -2 -3 -4
right_child=2 5 6 -5 -6 -7 -8
leaf_value=0.0031410181246096106 -0.00097274609787709426 -0.0014294041244291727 0.0016896585615075741 0.00083385204949538657 -0.00029070969319985114 0.0003283139740575519 -0.0019118353152755949
leaf_weight=356.49681480228901 5152.378658875823 514.20773321390152 59.493123427033424 9690.8647970855236 8979.4212882816792 4306.3519533276558 1359.2989922314882
leaf_count=1426 20611 2057 238 38764 35920 17226 5438
internal_value=-7.55157e-06 0.000664688 -0.000650474 0.000916432 -0.000539633 0.000139807 -0.00175185
internal_weight=30418.5 14867.9 15550.6 10047.4 14131.8 4820.56 1418.79
internal_count=121680 59473 62207 40190 56531 19283 5676
is_linear=0
shrinkage=0.007282


Tree=9
num_leaves=8
num_cat=0
split_feature=12 6 6 8 12 10 3
split_gain=255.459 83.3603 48.454 35.1192 33.3074 27.6949 14.6677
threshold=-0.00022761852511369283 1259.2978379228227 1238.4740242245773 0.0016299532054707508 0.0030392062793967735 8.8466055533254959e-05 -0.00049504004649773164
decision_type=2 2 2 2 2 2 2
left_child=2 6 3 -1 -3 -4 -2
right_child=1 4 5 -5 -6 -7 -8
leaf_value=0.0015084775418178307 0.0013258858370899858 -0.00070224205579615053 -0.0062248954751238051 -0.0011710622650762219 -0.0019216327180251449 0.00045924211902147492 0.00019045444904605043
leaf_weight=4573.4849712103605 780.47986721992493 12872.743700176477 28.487290531396866 269.24137534201145 1308.0183140933514 7925.6057826131582 2641.8844711333513
leaf_count=18294 3122 51495 114 1077 5233 31703 10568
internal_value=2.26449e-07 -0.00056876 0.00078311 0.00135754 -0.000815045 0.000433162 0.000450001
internal_weight=30399.9 17603.1 12796.8 4842.73 14180.8 7954.09 3422.36
internal_count=121606 70418 51188 19371 56728 31817 13690
is_linear=0
shrinkage=0.007282


Tree=10
num_leaves=8
num_cat=0
split_feature=4 2 3 16 10 3 10
split_gain=161.324 49.021 33.8125 20.3821 16.6477 12.3401 10.4372
threshold=-0.00024022734881482815 -9.4094498403423713e-05 -0.00063680027927350382 2.7400510249142491 0.00025468502076357716 -0.00011914953992393596 0.00010431807073745033
decision_type=2 2 2 2 2 2 2
left_child=2 5 4 -3 -1 -2 -4
right_child=1 3 6 -5 -6 -7 -8
leaf_value=0.0032315552555331494 0.00049781443260490021 -0.00065919883909261695 -0.002880369657700976 -0.0022875809961151144 0.00093037935224078478 -0.00019988772416668624 0.00027402369154450718
leaf_weight=167.99813856184483 2466.3932075053453 11598.256564795971 51.488785460591316 419.70131041109562 6229.6679424643517 2936.8080362081528 6529.5418108105659
leaf_count=672 9866 46397 206 1679 24919 11748 26119
internal_value=2.19032e-07 -0.000457495 0.000614803 -0.000716548 0.000991903 0.000117835 0.000247964
internal_weight=30399.9 17421.2 12978.7 12018 6397.67 5403.2 6581.03
internal_count=121606 69690 51916 48076 25591 21614 26325
is_linear=0
shrinkage=0.007282


Tree=11
num_leaves=8
num_cat=0
split_feature=12 6 6 12 14 12 15
split_gain=249.562 81.878 47.554 32.7441 24.1774 13.0482 9.88951
threshold=-0.00022761852511369283 1259.2978379228227 1238.4740242245773 0.0030392062793967735 0.29169513333618341 -0.0013634172028394876 0.00013179046269779971
decision_type=2 2 2 2 2 2 2
left_child=2 6 5 -3 -4 -1 -2
right_child=1 3 4 -5 -6 -7 -8
leaf_value=0.0016705474104199798 -0.00059019294394132269 -0.00069441076540526999 0.0004718695660137898 -0.0019034762554145238 -0.0031242046772578559 0.00090270042049062028 0.000594833697592001
leaf_weight=2775.4905354827642 419.47563377022743 12872.613738074899 7858.3655764907598 1307.9726338386536 95.745204195380211 2067.2447234541178 3002.8929297029972
leaf_count=11102 1678 51495 31434 5233 383 8269 12012
internal_value=2.15498e-07 -0.000562169 0.000774008 -0.000806258 0.000427322 0.00134307 0.000447488
internal_weight=30399.8 17603 12796.8 14180.6 7954.11 4842.74 3422.37
internal_count=121606 70418 51188 56728 31817 19371 13690
is_linear=0
shrinkage=0.007282


Tree=12
num_leaves=8
num_cat=0
split_feature=6 4 4 8 4 14 14
split_gain=215.448 76.6791 23.718 29.3877 22.78 19.3522 9.31469
threshold=1254.8899193786058 -0.00024022734881482815 -0.00069788614354161164 0.0016299532054707508 0.0038526205498208817 0.35526878493541675 -0.19072152046603189
decision_type=2 2 2 2 2 2 2
left_child=2 5 3 -1 -3 -2 -4
right_child=1 4 6 -5 -6 -7 -8
leaf_value=0.0014629288872206525 0.00023804962255668426 -0.00062557757278915627 0.0016154115697234626 -0.0010005531338372784 -0.0017155450772057576 -0.0040773141868523169 0.00045496246757577573
leaf_weight=4281.9855785667896 7278.7572279125452 13097.042754843831 402.74268122017384 267.24313649535179 1102.0309751331806 50.996635720133781 3958.900202691555
leaf_count=17128 29116 52393 1611 1069 4409 204 15836
internal_value=-4.00004e-06 -0.000398197 0.000947914 0.00131632 -0.000710478 0.00020614 0.000563475
internal_weight=30439.7 21528.8 8910.87 4549.23 14199.1 7329.75 4361.64
internal_count=121766 86122 35644 18197 56802 29320 17447
is_linear=0
shrinkage=0.007282


Tree=13
num_leaves=8
num_cat=0
split_feature=6 13 10 16 14 6 18
split_gain=212.323 43.6712 34.7611 22.6754 19.8354 16.6273 13.8395
threshold=1254.8899193786058 -0.012301277828221322 8.8466055533254959e-05 3.1022247452099854 -0.050048636628670706 1222.8511096377408 0.28220376208876635
decision_type=2 2 2 2 2 2 2
left_child=4 2 -2 -3 5 -1 -6
right_child=1 3 -4 -5 6 -7 -8
leaf_value=0.0017422549070912174 -0.0055262645600582814 -0.00064589331652158317 1.6422024937448594e-06 -0.0029230117705387848 -0.0014446032991520116 0.00075594800338483125 0.00071284190595271777
leaf_weight=2244.7367382198572 56.234371602535248 11635.337157666683 9604.1931216567755 232.9659002572298 157.49417389929295 1536.7282776534557 4971.920664742589
leaf_count=8979 225 46546 38419 932 630 6147 19888
internal_value=-3.97365e-06 -0.000395304 -3.15812e-05 -0.000691199 0.000941011 0.00134188 0.000645271
internal_weight=30439.6 21528.7 9660.43 11868.3 8910.88 3781.47 5129.41
internal_count=121766 86122 38644 47478 35644 15126 20518
is_linear=0
shrinkage=0.007282


Tree=14
num_leaves=8
num_cat=0
split_feature=12 12 13 7 12 5 7
split_gain=228.572 36.0667 36.4899 30.1158 24.3317 20.9362 19.3419
threshold=-0.00020219688409930619 0.0030392062793967735 -0.096916254226111803 4.5142439267837358e-05 -0.00172079407762478 0.053597684147088688 0.0018516298924061904
decision_type=2 2 2 2 2 2 2
left_child=4 3 -3 -2 6 -6 -1
right_child=1 2 -4 -5 5 -7 -8
leaf_value=0.0013218804773014027 -0.0017858012327915031 0.0018541451416189919 -0.0020412076179671156 -0.00037640583361071812 0.00047684205124967367 0.0033289255980243279 -0.0011127810483512941
leaf_weight=3692.4741126000881 846.13892878592014 136.22370971739292 1288.4164649993181 15114.923577234149 9051.1120760142803 134.49816237390041 175.74598996341228
leaf_count=14770 3385 545 5155 60465 36205 538 703
internal_value=-3.9493e-06 -0.00055076 -0.00166003 -0.000451498 0.000724061 0.00051965 0.00120895
internal_weight=30439.5 17385.7 1424.64 15961.1 13053.8 9185.61 3868.22
internal_count=121766 69550 5700 63850 52216 36743 15473
is_linear=0
shrinkage=0.007282


Tree=15
num_leaves=8
num_cat=0
split_feature=12 6 6 12 9 7 9
split_gain=246.885 70.6228 39.5101 34.8696 24.0055 20.3871 13.1159
threshold=-0.00022761852511369283 1260.2350273759823 1238.4740242245773 0.0036303459699517393 8.9134500255391315e-05 0.0018516298924061904 0.00024856280327540574
decision_type=2 2 2 2 2 2 2
left_child=2 6 5 -3 -4 -1 -2
right_child=1 3 4 -5 -6 -7 -8
leaf_value=0.0013808264278112948 -0.00083785053249654817 -0.00069123505900673104 -0.0047860314522069226 -0.0021827868561243736 0.00048750063228231893 -0.0012677803702045092 0.00053503680404869039
leaf_weight=4664.7267464101315 413.22517015039921 13238.490073606372 41.479175567626953 884.70920713245869 7919.1535698473454 153.74540066719055 3078.1554347425699
leaf_count=18659 1653 52960 166 3540 31677 615 12313
internal_value=3.14884e-06 -0.000555694 0.000773645 -0.00078505 0.000458273 0.00129432 0.000370445
internal_weight=30393.7 17614.6 12779.1 14123.2 7960.63 4818.47 3491.38
internal_count=121583 70466 51117 56500 31843 19274 13966
is_linear=0
shrinkage=0.007282


Tree=16
num_leaves=8
num_cat=0
split_feature=6 3 8 3 8 9 5
split_gain=193.446 58.6658 24.4738 23.9635 24.3956 16.281 13.5859
threshold=1254.8899193786058 -0.0003187432425758822 4.8463529017188298e-05 -0.00022854013581614468 0.0016299532054707508 0.00024134475579415079 -0.014451823005993507
decision_type=2 2 2 2 2 2 2
left_child=3 5 -3 4 -1 -2 -5
right_child=1 2 -4 6 -6 -7 -8
leaf_value=0.0013235637298854976 0.0016273060577715551 -0.0023015431858371383 -0.00055621860870183192 0.0010550034481295785 -0.00092013761395346122 0.00013932957324349618 0.0001023845524599811
leaf_weight=5124.702173858881 415.73289443552494 435.17265820503235 15120.504125162959 1220.7248711436987 264.49313367903233 5538.5240453630686 2273.6963896155357
leaf_count=20499 1663 1741 60489 4883 1058 22155 9095
internal_value=3.11843e-06 -0.000370095 -0.000605439 0.00090698 0.00121194 0.000243971 0.000436497
internal_weight=30393.6 21509.9 15555.7 8883.62 5389.2 5954.26 3494.42
internal_count=121583 86048 62230 35535 21557 23818 13978
is_linear=0
shrinkage=0.007282


Tree=17
num_leaves=8
num_cat=0
split_feature=6 4 4 4 13 17 3
split_gain=190.639 77.621 26.9326 23.017 14.9428 13.4037 8.7428
threshold=1254.8899193786058 -0.00024022734881482815 -0.00091735238684771919 0.0038526205498208817 -0.16375680276402182 0.21523744778517592 3.343891406032686e-05
decision_type=2 2 2 2 2 2 2
left_child=2 5 4 -3 -1 -2 -4
right_child=1 3 6 -5 -6 -7 -8
leaf_value=0.0018203835006579837 -0.00079685878551378022 -0.00059598296751368766 0.00079382274997310599 -0.001688210770797272 0.00093210198648320324 0.00033450985614839879 0.00016248577588008479
leaf_weight=1852.2244966179132 599.46892434358597 13078.42939440906 2788.4618439972401 1109.4293638467789 2230.9743344634771 6722.5138927102089 2011.9495600908995
leaf_count=7409 2398 52320 11154 4439 8924 26891 8048
internal_value=3.09529e-06 -0.000367401 0.000900375 -0.000681696 0.00133558 0.000241006 0.000529957
internal_weight=30393.5 21509.8 8883.61 14187.9 4083.2 7321.98 4800.41
internal_count=121583 86048 35535 56759 16333 29289 19202
is_linear=0
shrinkage=0.007282


Tree=18
num_leaves=8
num_cat=0
split_feature=6 4 4 7 4 14 14
split_gain=205.318 65.8898 26.7608 23.4775 23.0361 20.0845 9.77266
threshold=1254.8899193786058 -0.00024022734881482815 -0.00069788614354161164 0.0018516298924061904 0.0038526205498208817 0.35526878493541675 -0.16554603715791297
decision_type=2 2 2 2 2 2 2
left_child=2 5 3 -1 -3 -2 -4
right_child=1 4 6 -5 -6 -7 -8
leaf_value=0.0014214086956833879 0.000209091625463778 -0.00058799013841776102 0.0014570450286014154 -0.0014055339974554033 -0.0016836222118903189 -0.0041877024417428426 0.00039461744766070727
leaf_weight=4394.6850167065859 7275.4946708232164 13041.102944523096 520.49286134541035 155.99465154111385 1103.1497665047646 50.994785651564598 3837.4267566949129
leaf_count=17579 29103 52171 2082 624 4414 204 15350
internal_value=2.09648e-06 -0.000383383 0.000931341 0.00132237 -0.000673752 0.000176591 0.000522812
internal_weight=30379.3 21470.7 8908.6 4550.68 14144.3 7326.49 4357.92
internal_count=121527 85892 35635 18203 56585 29307 17432
is_linear=0
shrinkage=0.007282


Tree=19
num_leaves=8
num_cat=0
split_feature=12 12 7 10 17 1 10
split_gain=222.953 49.6298 31.5001 21.3209 20.4483 12.748 6.20561
threshold=-0.00054330615553123678 0.0030392062793967735 0.00019252043950646484 0.0003005615895077431 0.2051206742289293 -0.00044828687279511922 0.00021490722678102294
decision_type=2 2 2 2 2 2 2
left_child=3 2 -2 6 -5 -3 -1
right_child=1 5 -4 4 -6 -7 -8
leaf_value=0.0032889296240275062 -0.00074491962065006002 -0.00024920820533624866 -0.00012038585810088976 -0.00070921110321055757 0.00087761690488429109 -0.0020640260984877653 0.0017062843369734725
leaf_weight=184.24750532209873 6550.0134220719337 248.67731249332428 12393.10537853837 445.99218827486038 8894.119921579957 1174.5620484054089 488.49452385306358
leaf_count=737 26203 995 49577 1784 35577 4700 1954
internal_value=2.07674e-06 -0.00043519 -0.000336523 0.000891681 0.000801209 -0.00174513 0.00214242
internal_weight=30379.2 20366.4 18943.1 10012.9 9340.11 1423.24 672.742
internal_count=121527 81475 75780 40052 37361 5695 2691
is_linear=0
shrinkage=0.007282


Tree=20
num_leaves=8
num_cat=0
split_feature=3 14 18 15 7 3 7
split_gain=146.429 29.7633 25.9501 24.4433 16.5024 12.613 9.63384
threshold=-0.00022854013581614468 -0.058537910366976274 0.61389986400342245 1.1271930897713181e-07 0.0020285903108735251 -0.00079772701707750968 4.5142439267837358e-05
decision_type=2 2 2 2 2 2 2
left_child=2 6 5 -3 -4 -1 -2
right_child=1 3 4 -5 -6 -7 -8
leaf_value=0.00058456295339832042 -0.0011072311372009916 -0.0024330214672427684 0.00083689460863883131 -0.00055482044216216607 -0.0014768009529153958 -0.00045794365422815059 9.2112072425085245e-05
leaf_weight=1036.9671884328127 374.93127170205116 375.6780644506216 9404.4379757344723 11988.142885118723 160.99011777341366 1498.9225108325481 5539.0246977508068
leaf_count=4148 1500 1503 37619 47959 644 5996 22158
internal_value=2.0596e-06 -0.000409162 0.000623372 -0.000612413 0.000797084 -2.97451e-05 1.50221e-05
internal_weight=30379.1 18277.8 12101.3 12363.8 9565.43 2535.89 5913.96
internal_count=121527 73120 48407 49462 38263 10144 23658
is_linear=0
shrinkage=0.007282


Tree=21
num_leaves=8
num_cat=0
split_feature=12 6 12 6 10 7 15
split_gain=209.057 66.3924 37.0092 35.6435 29.0594 16.1988 12.4097
threshold=-0.00054330615553123678 1254.8899193786058 0.0036303459699517393 1238.4740242245773 0.0003005615895077431 0.0018516298924061904 0.00013179046269779971
decision_type=2 2 2 2 2 2 2
left_child=3 6 -3 5 -5 -1 -2
right_child=1 2 -4 4 -6 -7 -8
leaf_value=0.0014615154592688892 -0.00064830731377778325 -0.00053660576964018752 -0.0020644944758137201 0.0021574772679745337 0.00033469576093559164 -0.00091835023231875426 0.00058877545238108814
leaf_weight=4092.6318270415068 484.72803574800491 15603.178540557623 885.82745985686779 504.99577295780182 5280.9601382762194 151.49348174035549 3437.9399712085724
leaf_count=16371 1939 62421 3545 2020 21124 606 13752
internal_value=6.50881e-06 -0.000416368 -0.000619025 0.000867279 0.000495024 0.00137445 0.000434146
internal_weight=30441.8 20411.7 16489 10030.1 5785.96 4244.13 3922.67
internal_count=121778 81657 65966 40121 23144 16977 15691
is_linear=0
shrinkage=0.007282


Tree=22
num_leaves=8
num_cat=0
split_feature=12 12 2 9 8 2 2
split_gain=206.026 44.3446 33.2578 30.9345 25.4575 13.0913 9.67693
threshold=-0.00054330615553123678 0.0029199380487162142 -0.00011825416510713326 0.00024134475579415079 0.00038587713335725083 0.00081944288808216768 0.00015572776336392701
decision_type=2 2 2 2 2 2 2
left_child=3 2 -2 6 -5 -3 -1
right_child=1 5 -4 4 -6 -7 -8
leaf_value=0.0033197321133107633 0.00012569567742914641 -0.00085341160002369977 -0.00052742046151316125 0.00026684714780941365 0.0010539397884157644 -0.0022071542181605632 -0.00081863768803256158
leaf_weight=328.49075952172279 6098.8134798705578 693.0192127674818 12769.861929252744 3330.9493200480938 6343.3608551174402 849.8488095253706 27.249655917286873
leaf_count=1314 24397 2773 51086 13324 25374 3401 109
internal_value=6.45918e-06 -0.000413341 -0.000316145 0.000860967 0.000783205 -0.00159911 0.00295995
internal_weight=30441.6 20411.5 18868.7 10030.1 9674.31 1542.87 355.74
internal_count=121778 81657 75483 40121 38698 6174 1423
is_linear=0
shrinkage=0.007282


Tree=23
num_leaves=8
num_cat=0
split_feature=2 14 18 17 10 7 7
split_gain=83.5067 40.3097 26.1228 25.8757 25.578 14.8529 9.60453
threshold=-0.00011235086405110711 -0.061325974259782069 0.75618906030196864 2.4710177738097352 0.00052982836102482341 0.0013041610098391914 0.0012633027502870293
decision_type=2 2 2 2 2 2 2
left_child=2 4 6 -3 -2 -4 -1
right_child=1 3 5 -5 -6 -7 -8
leaf_value=3.8664769412950888e-05 -0.00026357171917773574 -0.00046745488142119923 0.00076901858552474924 -0.0018161446881956879 0.00069900260060612603 -0.00045733733708010844 -0.0022133625096910216
leaf_weight=4045.2697661519051 3186.1819980740547 11083.916577830911 7971.0897303968668 807.04407750070095 2696.5134835839272 552.94871252775192 98.491868481040001
leaf_count=16182 12746 44342 31886 3229 10787 2212 394
internal_value=6.40967e-06 -0.00031544 0.000458194 -0.000559414 0.000176998 0.000688781 -1.50567e-05
internal_weight=30441.5 17773.7 12667.8 11891 5882.7 8524.04 4143.76
internal_count=121778 71104 50674 47571 23533 34098 16576
is_linear=0
shrinkage=0.007282


Tree=24
num_leaves=8
num_cat=0
split_feature=3 4 8 4 8 8 13
split_gain=141.134 34.2766 24.5724 21.7325 14.6487 14.2835 9.74374
threshold=-0.00022854013581614468 -0.00025372451468357526 4.8463529017188298e-05 -0.00067994493005048479 0.00077545898126052957 0.0016299532054707508 -0.24192885505918738
decision_type=2 2 2 2 2 2 2
left_child=3 6 -3 5 -5 -1 -2
right_child=1 2 -4 4 -6 -7 -8
leaf_value=0.00093100164120076369 -0.00071559472764921731 -0.0023669044260534533 -0.00053480288584924207 0.00039773231122468755 -0.00070505121593783158 -0.00068897332598955952 0.00030224825360271378
leaf_weight=6717.0423300117254 572.47314897179604 396.13961774110794 13709.225247621536 4335.2601677179337 742.93861228227615 294.99174818396568 3625.0725799053907
leaf_count=26869 2290 1585 54846 17342 2972 1180 14501
internal_value=-1.13861e-05 -0.000414739 -0.000586714 0.000598951 0.00023563 0.000861875 0.000162031
internal_weight=30393.1 18302.9 14105.4 12090.2 5078.2 7012.03 4197.55
internal_count=121585 73222 56431 48363 20314 28049 16791
is_linear=0
shrinkage=0.007282


Tree=25
num_leaves=8
num_cat=0
split_feature=3 1 17 8 9 17 10
split_gain=139.086 30.4922 36.9571 16.9583 28.338 11.5397 11.205
threshold=-0.00022854013581614468 -0.00010707280288762017 2.4710177738097352 0.000155389774921438 0.00024134475579415079 6.1072637260997142 0.00049471088064744211
decision_type=2 2 2 2 2 2 2
left_child=3 5 -3 6 -5 -2 -1
right_child=1 2 -4 4 -6 -7 -8
leaf_value=-8.2506283203485957e-05 3.6518096792079043e-05 -0.00048887439716598341 -0.0020002455460438342 0.002580656603243036 0.00059897270150686933 0.0033060085507192567 -0.0025862841659434286
leaf_weight=724.20571814477444 4929.4889518618584 12400.830579653382 918.99600481987 393.23098532855511 10867.788584649563 53.495419442653656 104.99511371552944
leaf_count=2897 19720 49611 3677 1573 43473 214 420
internal_value=-1.13065e-05 -0.000411725 -0.000593562 0.000594585 0.000668788 7.34321e-05 -0.000405453
internal_weight=30393 18302.8 13319.8 12090.2 11261 4982.98 829.201
internal_count=121585 73222 53288 48363 45046 19934 3317
is_linear=0
shrinkage=0.007282


Tree=26
num_leaves=8
num_cat=0
split_feature=6 4 4 14 1 13 14
split_gain=191.756 64.1452 21.5515 19.6397 19.4411 12.5573 10.0932
threshold=1254.8899193786058 -0.00024022734881482815 -0.00069788614354161164 0.35526878493541675 -0.00025529402951766168 -0.16079491770229246 -0.19072152046603189
decision_type=2 2 2 2 2 2 2
left_child=2 3 5 -2 -3 -1 -4
right_child=1 4 6 -5 -6 -7 -8
leaf_value=0.0016633924555861527 0.00020189264775204833 -5.7858883139121288e-05 0.0016155194253566734 -0.0041267869907685569 -0.0007886359950831464 0.00089104182319405651 0.00040664819768720408
leaf_weight=2040.8819413483143 7265.7249821871519 2311.668123498559 401.74018363654613 51.492533564567566 11860.129183441401 2513.4030763655901 3947.896341919899
leaf_count=8164 29064 9248 1607 206 47450 10054 15792
internal_value=-1.12225e-05 -0.000383604 0.000887031 0.000169554 -0.00066952 0.00123767 0.000519677
internal_weight=30392.9 21489 8903.92 7317.22 14171.8 4554.29 4349.64
internal_count=121585 85968 35617 29270 56698 18218 17399
is_linear=0
shrinkage=0.007282


Tree=27
num_leaves=8
num_cat=0
split_feature=12 6 6 8 12 14 8
split_gain=200.701 68.4053 41.638 33.442 31.4349 22.5431 12.8417
threshold=-0.00022761852511369283 1260.2350273759823 1238.4740242245773 0.0016299532054707508 0.0036303459699517393 0.27916798508762308 0.00014964765749932046
decision_type=2 2 2 2 2 2 2
left_child=2 6 3 -1 -3 -4 -2
right_child=1 4 5 -5 -6 -7 -8
leaf_value=0.0013813872028854753 -0.00076905354438898247 -0.0006337697376918108 0.00042472458917943416 -0.0012565296345343657 -0.0020568209167417411 -0.0027863333872346924 0.00057942479974914781
leaf_weight=4570.4876827299595 420.21328699588776 13221.865621179342 7844.362999111414 264.24393504858017 875.70799918472767 112.98963491618633 3070.4137693345547
leaf_count=18283 1681 52897 31378 1057 3505 452 12282
internal_value=8.14489e-06 -0.000496457 0.000702135 0.00123527 -0.000722539 0.000377972 0.000415013
internal_weight=30380.3 17588.2 12792.1 4834.73 14097.6 7957.35 3490.63
internal_count=121535 70365 51170 19340 56402 31830 13963
is_linear=0
shrinkage=0.007282


Tree=28
num_leaves=7
num_cat=0
split_feature=12 12 8 9 8 14
split_gain=197.788 37.4092 34.082 23.5922 21.4656 18.6687
threshold=-0.00022761852511369283 0.0029199380487162142 4.8463529017188298e-05 8.9134500255391315e-05 0.0016299532054707508 -0.068697821490129388
decision_type=2 2 2 2 2 2
left_child=3 2 -2 -1 -5 -3
right_child=1 5 -4 4 -6 -7
leaf_value=-0.004547746147952488 -0.0025325340777961705 0.00043920006072173162 -0.0003362094041228306 0.00076764870316757105 -0.00097248833475140734 -0.0018916740702479248
leaf_weight=40.719836562871933 379.8718883395195 204.16807909309864 15669.224159702659 12369.578217938542 381.74162504076958 1334.7836712598801
leaf_count=163 1520 817 62686 49480 1527 5342
internal_value=8.07933e-06 -0.00049285 -0.000388686 0.000697016 0.000715033 -0.00157651
internal_weight=30380.1 17588 16049.1 12792 12751.3 1538.95
internal_count=121535 70365 64206 51170 51007 6159
is_linear=0
shrinkage=0.007282


Tree=29
num_leaves=8
num_cat=0
split_feature=4 1 17 17 3 9 7
split_gain=128.312 29.3388 25.9756 24.1272 15.0686 14.7256 11.5918
threshold=-0.00024022734881482815 -0.00010707280288762017 2.3275939313540905 0.21523744778517592 -0.00053630129270291007 0.0010565360622558249 0.0006343215965836311
decision_type=2 2 2 2 2 2 2
left_child=3 6 -3 5 -5 -1 -2
right_child=1 2 -4 4 -6 -7 -8
leaf_value=-0.00035918297749928913 0.00025143530548722405 -0.00049949285364837294 -0.0017548834627844462 0.00087503169089838794 0.00035711308116540675 -0.0041192917165281655 -0.00052444079476176252
leaf_weight=824.20779791474342 3943.1102573722601 11159.787819594145 946.40962913632393 6632.4164210855961 5446.9792087078094 54.9974085688591 1372.0189377814531
leaf_count=3297 15774 44648 3787 26531 21789 220 5489
internal_value=8.01378e-06 -0.000399995 -0.000598038 0.000556738 0.000641706 -0.000603175 5.0254e-05
internal_weight=30379.9 17421.3 12106.2 12958.6 12079.4 879.205 5315.13
internal_count=121535 69698 48435 51837 48320 3517 21263
is_linear=0
shrinkage=0.007282


Tree=30
num_leaves=8
num_cat=0
split_feature=4 2 18 14 14 8 4
split_gain=123.719 34.3561 28.3274 27.7842 16.6808 16.1062 14.4614
threshold=-0.00036409342417800865 -0.00011825416510713326 0.75618906030196864 -0.088766670443671689 0.30739764152200338 0.0020813378551078217 -0.00032142408114840571
decision_type=2 2 2 2 2 2 2
left_child=2 6 4 -3 -1 -4 -2
right_child=1 3 5 -5 -6 -7 -8
leaf_value=0.00013804540484371028 -0.002054308263851739 3.9432353694728939e-05 0.00088235887419887125 -0.00076000071641616645 -0.004023447699205338 -0.0015163306647358952 0.00017145276513058153
leaf_weight=4004.5806004405022 154.74315835535526 2986.7767583280802 7722.8341253101826 9949.1691588163376 47.242190137505531 145.99410118162632 5420.2064593434334
leaf_count=16019 619 11949 30893 39806 189 584 21683
internal_value=3.36984e-06 -0.000369088 0.000581948 -0.000575083 8.68224e-05 0.000836753 0.00010811
internal_weight=30431.5 18510.9 11920.7 12935.9 4051.82 7868.83 5574.95
internal_count=121742 74057 47685 51755 16208 31477 22302
is_linear=0
shrinkage=0.007282


Tree=31
num_leaves=8
num_cat=0
split_feature=11 8 16 18 8 8 14
split_gain=70.3993 30.5116 24.9977 20.4507 20.005 19.1906 13.4152
threshold=-6.8672769608045704e-05 0.00046308334242243539 2.6511199904346681 1.067154002508665 4.8463529017188298e-05 0.0014999575568532587 -0.036318076913551219
decision_type=2 2 2 2 2 2 2
left_child=3 4 -3 6 -2 -5 -1
right_child=1 2 -4 5 -6 -7 -8
leaf_value=0.00053490621907273839 -0.0020444634192754445 0.00015569322960404705 -0.0023109131522198001 0.00088556539903884087 -0.00047901484799440076 -0.0010450081177612372 -6.938091791250393e-05
leaf_weight=3313.5553605258465 449.3224662989378 6699.2037085294724 220.65254135429859 4713.6503600478172 10054.182762309909 283.96641613543034 4696.8890893608332
leaf_count=13255 1798 26802 883 18856 40223 1136 18789
internal_value=3.34031e-06 -0.000299155 7.57475e-05 0.00040872 -0.000546517 0.000774354 0.00018031
internal_weight=30431.4 17423.4 6919.86 13008.1 10503.5 4997.62 8010.44
internal_count=121742 69706 27685 52036 42021 19992 32044
is_linear=0
shrinkage=0.007282


Tree=32
num_leaves=8
num_cat=0
split_feature=12 6 6 12 10 9 12
split_gain=198.894 71.6591 40.0458 30.6072 29.789 14.6821 11.259
threshold=-0.00020219688409930619 1259.2978379228227 1238.4740242245773 0.0036303459699517393 8.8466055533254959e-05 0.00024856280327540574 -0.0013634172028394876
decision_type=2 2 2 2 2 2 2
left_child=2 5 6 -3 -4 -2 -1
right_child=1 3 4 -5 -6 -7 -8
leaf_value=0.001509837626526068 -0.00086087999124980679 -0.0006475210362790211 -0.0065396295524422039 -0.0020493620426352398 0.00039602826464260079 0.00062508501307744879 0.0008016161041698481
leaf_weight=2773.2062163501978 394.21120445430279 13138.986419543624 28.466309100389481 879.34407661855221 8136.0928638726473 2958.6577740311623 2122.3764181733131
leaf_count=11094 1577 52567 114 3520 32545 11835 8490
internal_value=3.31099e-06 -0.000506984 0.000682248 -0.000735827 0.000369683 0.000448107 0.00120313
internal_weight=30431.3 17371.2 13060.1 14018.3 8164.56 3352.87 4895.58
internal_count=121742 69499 52243 56087 32659 13412 19584
is_linear=0
shrinkage=0.007282


Tree=33
num_leaves=8
num_cat=0
split_feature=12 6 6 12 10 8 15
split_gain=200.805 75.4516 35.7365 25.2494 24.2663 20.5581 9.95683
threshold=-0.00020219688409930619 1260.2350273759823 1238.4740242245773 0.0036303459699517393 8.8466055533254959e-05 0.0016299532054707508 0.00013179046269779971
decision_type=2 2 2 2 2 2 2
left_child=2 6 5 -3 -4 -1 -2
right_child=1 3 4 -5 -6 -7 -8
leaf_value=0.0012792429297467983 -0.00060509009010192459 -0.00068025833932240784 -0.005720440819214169 -0.0019536683465261016 0.00040178419533464578 -0.00079171937164559632 0.00059136887001931006
leaf_weight=4610.7902070879936 413.45628264546394 13072.873140215874 29.958264261484146 880.04200559854507 8132.846016600728 262.74287843704224 3007.6568930894136
leaf_count=18445 1654 52303 120 3523 32532 1051 12031
internal_value=-1.06002e-05 -0.000523201 0.000672307 -0.000760929 0.000377369 0.00116592 0.000444692
internal_weight=30410.4 17374 13036.3 13952.9 8162.8 4873.53 3421.11
internal_count=121659 69511 52148 55826 32652 19496 13685
is_linear=0
shrinkage=0.007282


Tree=34
num_leaves=8
num_cat=0
split_feature=4 8 4 17 9 5 5
split_gain=125.101 26.3343 23.3752 20.4262 17.723 17.4994 14.8261
threshold=-0.00026667501650305675 4.8463529017188298e-05 0.0038526205498208817 0.21523744778517592 0.0011415138594957502 -0.045889594514524859 -0.093144626947719564
decision_type=2 2 2 2 2 2 2
left_child=3 5 -3 4 -1 -2 -5
right_child=1 2 -4 6 -6 -7 -8
leaf_value=-0.00030294280716009083 0.0018589018975034915 -0.00029043782952143575 -0.001345753027405293 -0.0030880861768694213 -0.0049454219452235437 -0.0027644849815571409 0.00063555834417938024
leaf_weight=817.20243799686432 43.97857329249382 16075.897604078054 1193.5244482755661 52.246428802609444 41.747268527746201 363.32194052636623 11822.209614858031
leaf_count=3269 176 64315 4777 209 167 1454 47292
internal_value=-1.05291e-05 -0.000406983 -0.000363668 0.000539576 -0.000540116 -0.00222867 0.000618216
internal_weight=30410.1 17676.7 17269.4 12733.4 858.95 407.301 11874.5
internal_count=121659 70722 69092 50937 3436 1630 47501
is_linear=0
shrinkage=0.007282


Tree=35
num_leaves=8
num_cat=0
split_feature=12 6 6 12 10 8 9
split_gain=196.368 74.2184 35.1294 24.6786 23.8995 20.2676 13.1935
threshold=-0.00020219688409930619 1260.2350273759823 1238.4740242245773 0.0036303459699517393 8.8466055533254959e-05 0.0016299532054707508 0.00055217420555320228
decision_type=2 2 2 2 2 2 2
left_child=2 6 5 -3 -4 -1 -2
right_child=1 3 4 -5 -6 -7 -8
leaf_value=0.0012667961830768826 1.0675577787152245e-05 -0.00067339703414418211 -0.0056798325046746806 -0.0019324079984345181 0.00039666888614603088 -0.0007894526189650724 0.00091662077734668002
leaf_weight=4610.7089227437973 1791.1528787314892 13072.677875265479 29.95096530020237 879.96634671092033 8132.8378018438816 262.74253812432289 1629.9586988389492
leaf_count=18445 7165 52303 120 3523 32532 1051 6520
internal_value=-1.04574e-05 -0.000517371 0.000664864 -0.000753152 0.000372439 0.00115427 0.000442575
internal_weight=30410 17373.8 13036.2 13952.6 8162.79 4873.45 3421.11
internal_count=121659 69511 52148 55826 32652 19496 13685
is_linear=0
shrinkage=0.007282


Tree=36
num_leaves=8
num_cat=0
split_feature=3 4 5 7 2 5 9
split_gain=125.238 28.3398 24.1555 21.1944 20.6566 11.7048 8.10048
threshold=-0.00022854013581614468 -0.00025372451468357526 -0.093144626947719564 0.00026675107267685067 -0.00011825416510713326 0.057457642845942451 0.0011970200922734235
decision_type=2 2 2 2 2 2 2
left_child=2 5 6 -4 -3 -2 -1
right_child=1 4 3 -5 -6 -7 -8
leaf_value=-0.0012976591369461398 8.6711222762009743e-05 -3.0240329048380775e-05 0.00016305454203529229 0.00080404401174013899 -0.00070282832361902585 0.0037642709164442205 -0.0065064425828026554
leaf_weight=27.247771993279457 4153.4812116920948 3110.5264605879784 4226.4219401180744 7801.3106651753187 11017.766554445028 41.997814074158669 30.996303305029869
leaf_count=109 16615 12444 16907 31208 44084 168 124
internal_value=-1.91791e-05 -0.000398756 0.000556024 0.000579014 -0.000554875 0.000125874 -0.00394658
internal_weight=30409.7 18323.8 12086 12027.7 14128.3 4195.48 58.2441
internal_count=121659 73311 48348 48115 56528 16783 233
is_linear=0
shrinkage=0.007282


Tree=37
num_leaves=8
num_cat=0
split_feature=6 13 10 16 8 6 10
split_gain=182.085 33.2445 27.7245 26.8569 24.0686 26.9359 7.71556
threshold=1254.8899193786058 -0.012301277828221322 8.8466055533254959e-05 2.7400510249142491 0.0016299532054707508 1214.2938651114639 0.0009522315003568883
decision_type=2 2 2 2 2 2 2
left_child=4 2 -2 -3 5 -1 -6
right_child=1 3 -4 -5 6 -7 -8
leaf_value=0.0013703220362117352 -0.005077810206418472 -0.00057641809604446403 -3.4188691189735816e-05 -0.0025441125135441441 -0.0043441866421821372 0.00054908080681746491 -0.0006535468675267944
leaf_weight=4013.4978721439838 53.699446335434914 11487.26848320663 9605.3272812962532 376.57174633443356 28.999115183949471 4510.754052489996 333.48950700461864
leaf_count=16056 215 45961 38426 1507 116 18044 1334
internal_value=-1.90368e-05 -0.000381173 -6.37631e-05 -0.000639424 0.000857562 0.000936089 -0.000964811
internal_weight=30409.6 21522.9 9659.03 11863.8 8886.74 8524.25 362.489
internal_count=121659 86109 38641 47468 35550 34100 1450
is_linear=0
shrinkage=0.007282


Tree=38
num_leaves=7
num_cat=0
split_feature=12 12 10 10 12 14
split_gain=194.786 35.5444 26.4522 24.4835 18.5107 14.0607
threshold=-0.00020219688409930619 0.0030392062793967735 0.00067543024947825769 8.8466055533254959e-05 -0.0016108686203163802 -0.20197498552213325
decision_type=2 2 2 2 2 2
left_child=3 2 -2 -1 -5 -3
right_child=1 5 -4 4 -6 -7
leaf_value=-0.0055640110407013752 -0.00061446277901806715 0.0024303313750711061 3.7407519848788395e-05 0.0010667731995413728 0.00047867768378375726 -0.0017498471715568869
leaf_weight=28.941063791513443 11326.483677148819 38.980547502636909 4641.741471067071 4214.2899736911058 8775.5827101916075 1383.4053315371275
leaf_count=116 45316 156 18570 16859 35104 5538
internal_value=-1.89057e-05 -0.000523194 -0.000424764 0.00065447 0.000669734 -0.00162532
internal_weight=30409.4 17390.6 15968.2 13018.8 12989.9 1422.39
internal_count=121659 69580 63886 52079 51963 5694
is_linear=0
shrinkage=0.007282


Tree=39
num_leaves=8
num_cat=0
split_feature=12 6 6 12 10 7 3
split_gain=176.784 72.8929 35.646 24.9488 23.8588 16.1964 12.7158
threshold=-0.00020219688409930619 1260.2350273759823 1238.4740242245773 0.0030392062793967735 8.8466055533254959e-05 0.0018516298924061904 -0.00049504004649773164
decision_type=2 2 2 2 2 2 2
left_child=2 6 5 -3 -4 -1 -2
right_child=1 3 4 -5 -6 -7 -8
leaf_value=0.0012169334032897596 0.0012969889029626036 -0.00060896427153751061 -0.0057864217236572183 -0.0016694315572354627 0.0003767651734298847 -0.0011228365480351905 0.00023611373790575387
leaf_weight=4726.0156410634518 772.48978710174561 12646.014805078506 28.934418395161629 1297.0901859253645 8128.5683203786612 156.4913993626833 2661.6126780360937
leaf_count=18907 3090 50597 116 5193 32515 626 10647
internal_value=6.98744e-06 -0.00047376 0.000647834 -0.000707931 0.000352947 0.00114011 0.000475383
internal_weight=30417.2 17377.2 13040 13943.1 8157.5 4882.51 3434.1
internal_count=121691 69527 52164 55790 32631 19533 13737
is_linear=0
shrinkage=0.007282


Tree=40
num_leaves=8
num_cat=0
split_feature=6 3 14 6 13 6 3
split_gain=162.559 42.2551 25.8473 14.5764 19.5963 13.4679 8.9323
threshold=1254.8899193786058 -0.00025848017870077234 -0.077838492120891889 1212.807682700068 -0.16079491770229246 1735.8193195228489 0.0016531464564181226
decision_type=2 2 2 2 2 2 2
left_child=3 5 -3 4 -1 -2 -5
right_child=1 2 -4 6 -6 -7 -8
leaf_value=0.0017905826286564257 0.00024224062461386837 -4.7367456154953778e-05 -0.00072904513801117573 0.00049311103777829022 0.00076153817921698356 -0.0011522410261602732 0.0022241161211838207
leaf_weight=1569.669317856431 6052.8263429105282 4033.6956614851952 11033.410574540496 4533.9551750868559 2646.940207362175 385.96327802538872 160.49390864372253
leaf_count=6280 24213 16138 44148 18137 10589 1544 642
internal_value=6.9313e-06 -0.000335612 -0.000546668 0.000833833 0.00114529 0.000157596 0.000553823
internal_weight=30417 21505.9 15067.1 8911.06 4216.61 6438.79 4694.45
internal_count=121691 86043 60286 35648 16869 25757 18779
is_linear=0
shrinkage=0.007282


Tree=41
num_leaves=8
num_cat=0
split_feature=6 4 2 9 4 0 17
split_gain=160.205 46.5948 20.6677 18.8165 16.4406 12.0492 6.5922
threshold=1254.8899193786058 -0.00024022734881482815 -0.00011825416510713326 0.00024134475579415079 -0.00069788614354161164 -0.44495458237823965 5.3492960598359787
decision_type=2 2 2 2 2 2 2
left_child=4 3 -3 -2 5 -1 -6
right_child=1 2 -4 -5 6 -7 -8
leaf_value=0.0017432078002680435 0.0012403574622769525 -9.2101601336663628e-05 -0.000736272209020736 1.4681613886011405e-05 0.00047334739332250997 0.00090166638663343878 0.0028431329003937734
leaf_weight=1255.7397821247578 734.88990752398968 3519.5838952511549 10669.598527014256 6581.6903932541609 4303.5494349002838 3292.4632955789566 59.246859043836594
leaf_count=5024 2940 14081 42694 26328 17215 13172 237
internal_value=6.88211e-06 -0.000333172 -0.000576607 0.000138351 0.000827777 0.0011347 0.000507553
internal_weight=30416.8 21505.8 14189.2 7316.58 8911 4548.2 4362.8
internal_count=121691 86043 56775 29268 35648 18196 17452
is_linear=0
shrinkage=0.007282


Tree=42
num_leaves=8
num_cat=0
split_feature=11 8 13 5 17 7 8
split_gain=67.9707 31.9177 33.8744 17.656 15.9115 15.5622 9.17566
threshold=-6.8672769608045704e-05 0.00046308334242243539 -0.017397978654315447 -0.093144626947719564 2.6397888846712809 4.5142439267837358e-05 0.00085009954323445644
decision_type=2 2 2 2 2 2 2
left_child=3 5 -3 6 -5 -2 -1
right_child=1 2 -4 4 -6 -7 -8
leaf_value=-0.00070613667136888844 -0.0014585411360183746 0.00072022976080368683 -0.00032972117022448717 0.00033065905195951793 0.0013529817505910111 -0.00047984659780009033 -0.006157332148269334
leaf_weight=28.746560782194138 946.83210523426533 2622.0743510723114 4285.1367218792439 12056.019173726439 863.35414072871208 9538.1529074311256 30.743973925709724
leaf_count=115 3789 10490 17147 48230 3454 38161 123
internal_value=-1.77686e-05 -0.000315416 6.83867e-05 0.000380846 0.000399357 -0.000568626 -0.00343169
internal_weight=30371.1 17392.2 6907.21 12978.9 12919.4 10485 59.4905
internal_count=121509 69587 27637 51922 51684 41950 238
is_linear=0
shrinkage=0.007282


Tree=43
num_leaves=8
num_cat=0
split_feature=6 3 8 6 7 6 13
split_gain=159.437 36.5076 21.2299 25.7529 20.3492 15.9842 6.63241
threshold=1254.8899193786058 -0.00022854013581614468 0.0016299532054707508 1212.807682700068 4.7913491118400918e-05 1715.9772266039292 0.093446309248734691
decision_type=2 2 2 2 2 2 2
left_child=2 5 3 -1 -3 -2 -4
right_child=1 4 6 -5 -6 -7 -8
leaf_value=0.0013125544283277529 0.00019684775158669218 -0.0016154054243140551 -0.0013377209017741054 0.00050783671979719473 -0.00048953134953327144 -0.0010912585018053608 0.0011960544019537188
leaf_weight=3902.244011297822 6125.8012805730104 905.29111307859421 308.49139077961445 4615.9217789620161 13900.012386739254 552.44423049688339 60.747698739171028
leaf_count=15612 24505 3623 1234 18465 55617 2210 243
internal_value=-1.76398e-05 -0.000357052 0.000802368 0.000876832 -0.000558694 8.93415e-05 -0.000892741
internal_weight=30371 21483.5 8887.4 8518.17 14805.3 6678.25 369.239
internal_count=121509 85955 35554 34077 59240 26715 1477
is_linear=0
shrinkage=0.007282


Tree=44
num_leaves=8
num_cat=0
split_feature=12 12 13 2 14 15 0
split_gain=168.435 36.9595 36.1998 29.8064 29.589 9.81061 7.28224
threshold=-0.00054330615553123678 0.0030392062793967735 -0.096916254226111803 -0.00011825416510713326 0.27916798508762308 0.00027524967007887887 0.072087628690222824
decision_type=2 2 2 2 2 2 2
left_child=4 3 -3 -2 5 -1 -6
right_child=1 2 -4 -5 6 -7 -8
leaf_value=0.0013741267743850572 0.00010584746909247949 0.0019705878468169432 -0.0019113474472062394 -0.00051186437466671562 -0.00067461094180606138 0.0007048985032853429 -0.0045353400442981326
leaf_weight=1353.6730388998985 6098.8304582834244 136.17661339044571 1283.0121743083 12840.841681003571 39.995385736227036 8552.9706140905619 65.244884610176086
leaf_count=5415 24398 545 5137 51377 160 34216 261
internal_value=-1.7511e-05 -0.000397859 -0.00153011 -0.000312781 0.000755532 0.000796744 -0.00300062
internal_weight=30370.7 20358.9 1419.19 18939.7 10011.9 9906.64 105.24
internal_count=121509 81457 5682 75775 40052 39631 421
is_linear=0
shrinkage=0.007282


Tree=45
num_leaves=8
num_cat=0
split_feature=6 4 4 14 4 0 14
split_gain=153.877 50.6038 19.2739 17.1167 13.6834 10.7875 10.2686
threshold=1248.5191485382732 -0.00024022734881482815 0.0038526205498208817 0.35526878493541675 -0.00091735238684771919 -0.44495458237823965 -0.16554603715791297
decision_type=2 2 2 2 2 2 2
left_child=4 3 -3 -2 5 -1 -6
right_child=1 2 -4 -5 6 -7 -8
leaf_value=0.0017744233377815152 0.00017550106384654627 -0.00050789067198993038 -0.0015071215297322198 -0.0037953829212567661 0.0015122723826168469 0.00091357458237252239 0.00041369832146259959
leaf_weight=1076.4440788775682 7612.5367472171783 13526.955337941647 1106.9839379042387 53.484527990221977 513.69590352475643 2812.1462289243937 3654.5293277949095
leaf_count=4307 30452 54124 4432 214 2055 11251 14619
internal_value=-2.09744e-05 -0.000332669 -0.000583772 0.00014613 0.000841225 0.00115268 0.000550397
internal_weight=30356.8 22300 14633.9 7666.02 8056.82 3888.59 4168.23
internal_count=121454 89222 58556 30666 32232 15558 16674
is_linear=0
shrinkage=0.007282


Tree=46
num_leaves=8
num_cat=0
split_feature=6 3 7 3 7 6 2
split_gain=151.65 41.2812 21.4723 15.4976 21.0821 13.3618 10.0827
threshold=1248.5191485382732 -0.00022854013581614468 4.7913491118400918e-05 -0.00052283630889569249 0.0020285903108735251 1740.8164760781949 -0.0015802877476652551
decision_type=2 2 2 2 2 2 2
left_child=3 5 -3 4 -1 -2 -5
right_child=1 2 -4 6 -6 -7 -8
leaf_value=0.0012292658975380014 0.00020698779726900762 -0.0016081475824585312 -0.00047243644615135746 -0.0016122843940654693 -0.0019035191444282688 -0.0012114672029855179 0.00056637565249231944
leaf_weight=4072.5305182635784 6646.2398508638144 938.98420907557011 14347.622811898589 110.99051409959793 111.9951329678297 366.95372648537159 3761.2247133553028
leaf_count=16294 26587 3758 57409 444 448 1468 15046
internal_value=-2.08216e-05 -0.000330253 -0.000542507 0.000835117 0.00114297 0.000131798 0.000502173
internal_weight=30356.5 22299.8 15286.6 8056.74 4184.53 7013.19 3872.22
internal_count=121454 89222 61167 32232 16742 28055 15490
is_linear=0
shrinkage=0.007282


Tree=47
num_leaves=8
num_cat=0
split_feature=6 4 7 3 7 6 16
split_gain=149.448 49.5606 24.1443 15.2727 20.7832 12.0762 11.5903
threshold=1248.5191485382732 -0.00024022734881482815 4.7913491118400918e-05 -0.00052283630889569249 0.0020285903108735251 1715.9772266039292 0.48917610775462567
decision_type=2 2 2 2 2 2 2
left_child=3 5 -3 4 -1 -2 -5
right_child=1 2 -4 6 -6 -7 -8
leaf_value=0.0012203365094616825 0.00023506569565833041 -0.0017606457194680443 -0.00050233366392073175 -0.00023064976680419098 -0.0018901157136941328 -0.00079199228178345783 0.00071483753698876027
leaf_weight=4072.4582639783621 7006.824108377099 856.98419259488583 13776.66876257956 882.44126319885254 111.99371367692947 659.18261583149433 2989.7675761282444
leaf_count=16294 28029 3430 55126 3530 448 2637 11960
internal_value=-2.06747e-05 -0.000327853 -0.000576358 0.000829032 0.00113465 0.000145981 0.000498502
internal_weight=30356.3 22299.7 14633.7 8056.66 4184.45 7666.01 3872.21
internal_count=121454 89222 58556 32232 16742 30666 15490
is_linear=0
shrinkage=0.007282


Tree=48
num_leaves=8
num_cat=0
split_feature=4 1 17 3 8 17 7
split_gain=103.763 27.4369 23.8095 22.5274 14.3443 13.9861 13.0497
threshold=-0.00024022734881482815 -0.00022398849160837832 2.3275939313540905 -0.00063680027927350382 0.0015616615987155082 0.230835637870173 0.0006343215965836311
decision_type=2 2 2 2 2 2 2
left_child=3 6 -3 4 -1 -5 -2
right_child=1 2 -4 5 -6 -7 -8
leaf_value=0.00089511261641394212 0.00048871968834625389 -0.00041889135514908154 -0.0015734321476913141 -0.00073023626367309149 -0.00065728801571112057 0.0003275548597530438 -0.00041778968853507358
leaf_weight=6076.1244516968727 2571.1312579214573 12558.002481594682 1022.591418504715 741.68073686957359 326.2295568138361 5844.686574831605 1243.6367779225111
leaf_count=24309 10286 50249 4093 2967 1305 23381 4976
internal_value=1.47489e-05 -0.000352822 -0.000506181 0.00050723 0.000814958 0.000207814 0.000191919
internal_weight=30384.1 17395.4 13580.6 12988.7 6402.35 6586.37 3814.77
internal_count=121566 69604 54342 51962 25614 26348 15262
is_linear=0
shrinkage=0.007282


Tree=49
num_leaves=8
num_cat=0
split_feature=12 6 9 12 6 16 2
split_gain=167.507 60.9279 32.3868 32.3763 29.5748 11.9312 9.96571
threshold=-0.00054330615553123678 1248.5191485382732 0.00024134475579415079 0.0036303459699517393 1238.4740242245773 3.7193395625623373 0.00014969218202706916
decision_type=2 2 2 2 2 2 2
left_child=2 5 6 -3 -4 -2 -1
right_child=1 3 4 -5 -6 -7 -8
leaf_value=0.0033151769577362605 0.00048977323685166978 -0.0004663111718051199 0.0011679607568030304 -0.001891055534750493 0.00035420965669336827 0.0046328489910032501 -0.00083011575352612982
leaf_weight=324.94006569683552 3306.0992521494627 16131.924065589905 4174.4953365027905 889.85709989070892 5495.3416396677494 32.997168108820915 28.248383119702339
leaf_count=1300 13225 64547 16703 3564 21982 132 113
internal_value=1.46376e-05 -0.000364577 0.000785186 -0.000541112 0.000705859 0.000533728 0.00294033
internal_weight=30383.9 20360.9 10023 17021.8 9669.84 3339.1 353.188
internal_count=121566 81468 40098 68111 38685 13357 1413
is_linear=0
shrinkage=0.007282


Tree=50
num_leaves=8
num_cat=0
split_feature=12 12 9 8 3 10 18
split_gain=165.076 34.1891 31.9117 27.7709 24.2929 14.7567 5.51792
threshold=-0.00054330615553123678 0.0036303459699517393 0.00024134475579415079 0.00039679817292069238 -0.00050874966712853174 0.0013042949144825638 0.29314248244873597
decision_type=2 2 2 2 2 2 2
left_child=2 4 6 -4 -2 -3 -1
right_child=1 5 3 -5 -6 -7 -8
leaf_value=0.0054673397879707718 0.00030643095639589217 -0.0024549549692841374 0.00018281552528902435 0.0009951709889171453 -0.00040597924439011491 -0.00059323617855649893 0.0025989703828174179
leaf_weight=38.246534585952759 2992.7091973572969 568.23649610579014 3508.1160729527473 6161.6359948515892 16423.44375166297 376.30592612922192 314.92863807082176
leaf_count=153 11972 2276 14034 24651 65713 1507 1260
internal_value=1.45316e-05 -0.000361923 0.000779473 0.000700727 -0.000295971 -0.00171234 0.00291882
internal_weight=30383.6 20360.7 10022.9 9669.75 19416.2 944.542 353.175
internal_count=121566 81468 40098 38685 77685 3783 1413
is_linear=0
shrinkage=0.007282


Tree=51
num_leaves=8
num_cat=0
split_feature=12 12 8 13 12 14 7
split_gain=157.507 27.2137 31.5496 23.1062 22.6193 31.9894 16.5879
threshold=-1.1792347345029495e-05 0.0036303459699517393 0.00032023681331373369 -0.096916254226111803 -0.00054330615553123678 0.27916798508762308 5.4545191755263964e-05
decision_type=2 2 2 2 2 2 2
left_child=4 2 -2 -3 5 -1 -6
right_child=1 3 -4 -5 6 -7 -8
leaf_value=0.00077347382371267131 -0.00085169536944191464 0.0018759428047414139 -0.00015913952897589898 -0.0020607810647843821 -0.0010828365028319846 -0.0031404647138875692 0.00027420914516734747
leaf_weight=9902.6173110455275 5848.4742187410593 81.690323874354362 8661.5372987389565 868.78344957530499 530.75233320891857 107.23661983013153 4401.2843457460403
leaf_count=39617 23402 327 34656 3480 2124 429 17607
internal_value=-1.60715e-06 -0.000516904 -0.000438521 -0.00170896 0.000531374 0.000730349 0.000127274
internal_weight=30402.4 15460.5 14510 950.474 14941.9 10009.9 4932.04
internal_count=121642 61865 58058 3807 59777 40046 19731
is_linear=0
shrinkage=0.007282


Tree=52
num_leaves=8
num_cat=0
split_feature=6 4 4 14 14 3 6
split_gain=149.717 43.5341 17.7151 17.0815 16.2942 14.6466 12.3512
threshold=1254.8899193786058 -0.00024022734881482815 0.0038526205498208817 -0.050048636628670706 0.35526878493541675 3.343891406032686e-05 1198.0215562522792
decision_type=2 2 2 2 2 2 2
left_child=3 4 -3 6 -2 -5 -1
right_child=1 2 -4 5 -6 -7 -8
leaf_value=0.0017009590847693432 0.00015465084428562879 -0.00049025227175987941 -0.0014499318538636512 0.00077688763945876239 -0.0038063756544247838 -6.5831728815067366e-05 0.00083717336793855731
leaf_weight=1431.9644283503294 7276.4641859829426 13086.442609295249 1105.9858330190182 3573.5293161720037 50.980838626623154 1561.6551372259855 2315.107119306922
leaf_count=5730 29108 52365 4429 14297 204 6247 9262
internal_value=-1.59717e-06 -0.000329964 -0.000565338 0.000793519 0.000125358 0.000520011 0.00116797
internal_weight=30402.1 21519.9 14192.4 8882.26 7327.45 5135.18 3747.07
internal_count=121642 86106 56794 35536 29312 20544 14992
is_linear=0
shrinkage=0.007282


Tree=53
num_leaves=8
num_cat=0
split_feature=4 11 7 3 7 8 11
split_gain=93.9019 25.86 24.6012 17.7149 17.6711 15.9193 9.25278
threshold=-0.00024022734881482815 -6.8672769608045704e-05 0.00013368037693657151 -0.00063680027927350382 0.00087961592774055163 0.0016299532054707508 -0.00062021116856881165
decision_type=2 2 2 2 2 2 2
left_child=3 4 -3 5 -2 -1 -5
right_child=1 2 -4 6 -6 -7 -8
leaf_value=0.00082040671243499715 0.00024400085110386698 -0.0011418063793139802 -0.00035719289050770386 -0.0010187666465902904 -0.0011092244626520107 -0.00091076844459857329 0.00026272973139184798
leaf_weight=6098.5599063187838 4463.0167198777199 2715.949276715517 9687.0205161422491 308.45735315978527 573.0793092995882 289.23931904137135 6266.546145260334
leaf_count=24400 17855 10869 38765 1234 2293 1157 25069
internal_value=-1.58743e-06 -0.000350559 -0.000529291 0.000467641 8.87681e-05 0.000740913 0.000201856
internal_weight=30401.9 17439.1 12403 12962.8 5036.1 6387.8 6575
internal_count=121642 69782 49634 51860 20148 25557 26303
is_linear=0
shrinkage=0.007282


Tree=54
num_leaves=8
num_cat=0
split_feature=4 2 17 9 10 3 7
split_gain=98.8592 41.96 22.787 21.6359 18.0558 14.5022 10.7304
threshold=-0.00024022734881482815 -0.00011825416510713326 0.21523744778517592 0.00059231949862565889 0.00027105168936989094 -0.0017929996401393831 0.0006343215965836311
decision_type=2 2 2 2 2 2 2
left_child=2 6 4 -3 -1 -4 -2
right_child=1 3 5 -5 -6 -7 -8
leaf_value=0.0016011294226095059 0.00037584081561496609 -0.00082334691315640344 0.0010659197938762612 -0.00018836420554898465 -0.0011258785766489123 0.00043594220894663271 -0.00041318597257718258
leaf_weight=150.97291684150696 3949.8577843755484 7765.3526653051376 2430.9844562262297 4506.8186842054129 728.43439568579197 9680.5967080742121 1181.1702750176191
leaf_count=604 15802 31074 9727 18037 2914 38728 4726
internal_value=-1.92289e-07 -0.000359058 0.000480309 -0.000590325 -0.000647021 0.000562688 0.000193207
internal_weight=30394.2 17403.2 12991 12272.2 879.407 12111.6 5131.03
internal_count=121612 69639 51973 49111 3518 48455 20528
is_linear=0
shrinkage=0.007282


Tree=55
num_leaves=8
num_cat=0
split_feature=6 4 2 4 10 15 13
split_gain=145.826 46.7754 19.9182 17.6217 17.53 13.3767 8.14474
threshold=1254.8899193786058 -0.00024022734881482815 -0.00012465611151988071 -0.00069788614354161164 0.0011111832034678569 0.0029453695939881722 0.33760962155073709
decision_type=2 2 2 2 2 2 2
left_child=3 4 -3 5 -2 -1 -5
right_child=1 2 -4 6 -6 -7 -8
leaf_value=0.0012010806732308554 0.00025887610061032818 -9.0866620610244693e-05 -0.00072546826575125927 0.00053666466021832148 -0.00098249592775888871 -0.00042913131039661219 -0.00069693527496609274
leaf_weight=4278.7162470966578 6677.4934259802103 3486.9048463255167 10673.121649727225 4043.6681729108095 657.94592741131783 277.4181701540947 298.72981889545918
leaf_count=17121 26712 13951 42715 16176 2632 1110 1195
internal_value=-1.89184e-07 -0.000324787 -0.000569318 0.000783467 0.000146677 0.00110032 0.000450745
internal_weight=30394 21495.5 14160 8898.53 7335.44 4556.13 4342.4
internal_count=121612 86010 56666 35602 29344 18231 17371
is_linear=0
shrinkage=0.007282


Tree=56
num_leaves=8
num_cat=0
split_feature=4 2 14 13 5 14 7
split_gain=95.9141 40.8515 24.8281 15.9198 14.4591 12.9995 10.5795
threshold=-0.00024022734881482815 -0.00011825416510713326 -0.085598536889278556 0.25871395965342542 -0.093144626947719564 0.30739764152200338 0.0006343215965836311
decision_type=2 2 2 2 2 2 2
left_child=3 6 -3 4 -1 -5 -2
right_child=1 2 -4 5 -6 -7 -8
leaf_value=-0.0030218900120153086 0.00037258538239771184 1.4701108421915718e-05 -0.00076125107834234293 -0.00026009514800562605 0.00054819556839104714 -0.0033972062733358677 -0.0004108731532846163
leaf_weight=55.742202892899513 3949.8625494986773 2831.2602574974298 9440.6082998663187 561.18347568809986 12297.926214203238 75.982109561562538 1181.1632247120142
leaf_count=223 15802 11329 37782 2245 49201 304 4726
internal_value=-1.90212e-07 -0.000353675 -0.000581873 0.000473101 0.000531197 -0.000643297 0.000191239
internal_weight=30393.7 17402.9 12271.9 12990.8 12353.7 637.166 5131.03
internal_count=121612 69639 49111 51973 49424 2549 20528
is_linear=0
shrinkage=0.007282


Tree=57
num_leaves=8
num_cat=0
split_feature=3 14 8 8 8 9 8
split_gain=97.7837 22.904 16.723 15.7551 16.2852 16.1529 12.2883
threshold=-0.00022854013581614468 -0.061325974259782069 4.0046872498965894e-05 0.00035649610438755875 0.0016299532054707508 0.00024134475579415079 0.00041349923864660297
decision_type=2 2 2 2 2 2 2
left_child=3 6 -3 5 -5 -1 -2
right_child=1 2 -4 4 -6 -7 -8
leaf_value=0.0011349840212001798 -0.00023952657377236631 -0.0025222412985888521 -0.00047135592326621133 0.00078606606903359956 -0.00073132757588628304 -3.8623276374392602e-05 0.0004390688441666426
leaf_weight=745.09103247523308 3338.0556005239487 210.78185264766216 12311.084080651402 7360.4642543494701 388.70790430903435 3622.7037963867188 2447.628133058548
leaf_count=2981 13356 844 49265 29449 1555 14493 9793
internal_value=4.388e-06 -0.00033133 -0.000506438 0.000511837 0.000709122 0.000161479 4.69382e-05
internal_weight=30424.5 18307.5 12521.9 12117 7749.17 4367.79 5785.68
internal_count=121736 73258 50109 48478 31004 17474 23149
is_linear=0
shrinkage=0.007282


Tree=58
num_leaves=8
num_cat=0
split_feature=12 6 6 8 12 10 8
split_gain=165.125 60.0205 32.1907 28.67 23.4908 21.4547 10.0618
threshold=-0.00022761852511369283 1259.2978379228227 1237.4855952971814 0.0016299532054707508 0.0036303459699517393 8.8466055533254959e-05 0.00014646141459620973
decision_type=2 2 2 2 2 2 2
left_child=2 6 3 -1 -3 -4 -2
right_child=1 4 5 -5 -6 -7 -8
leaf_value=0.0012443876499085738 -0.00066854328917527862 -0.00058526228062669443 -0.0054716218098933298 -0.0011912840676733356 -0.0018113862827007533 0.00037448302328992283 0.00055598436527703164
leaf_weight=4510.8544858545065 396.68609923124313 13310.977236241102 28.914426624774933 265.99093881249428 882.05525025725365 8006.2800308465958 3022.5930478870869
leaf_count=18051 1587 53266 116 1064 3534 32027 12091
internal_value=4.35264e-06 -0.000453051 0.000633332 0.00110691 -0.000661808 0.000351544 0.000411885
internal_weight=30424.4 17612.3 12812 4776.85 14193 8035.19 3419.28
internal_count=121736 70478 51258 19115 56800 32143 13678
is_linear=0
shrinkage=0.007282


Tree=59
num_leaves=8
num_cat=0
split_feature=12 6 6 8 12 14 9
split_gain=162.728 59.15 31.7249 28.2588 23.1534 21.3502 11.0009
threshold=-0.00022761852511369283 1259.2978379228227 1237.4855952971814 0.0016299532054707508 0.0036303459699517393 0.27916798508762308 0.00054938860813846834
decision_type=2 2 2 2 2 2 2
left_child=2 6 3 -1 -3 -4 -2
right_child=1 4 5 -5 -6 -7 -8
leaf_value=0.0012353573236184735 1.1131467723738952e-05 -0.00058100702168710689 0.00039414123615656726 -0.0011827496123358447 -0.0017983479628968524 -0.0027244537244690554 0.00083849120006954992
leaf_weight=4510.7425365746021 1776.8597688823938 13310.824645146728 7921.7131567448378 265.99062037467957 881.99048705399036 113.46503180265427 1642.418460264802
leaf_count=18051 7108 53266 31689 1064 3534 454 6570
internal_value=4.31352e-06 -0.000449761 0.000628715 0.00109887 -0.000657002 0.00034897 0.000408875
internal_weight=30424 17612.1 12811.9 4776.73 14192.8 8035.18 3419.28
internal_count=121736 70478 51258 19115 56800 32143 13678
is_linear=0
shrinkage=0.007282


Tree=60
num_leaves=8
num_cat=0
split_feature=12 6 12 6 8 10 3
split_gain=148.351 51.9852 30.8885 28.6212 26.4914 23.1601 13.1008
threshold=-0.00022761852511369283 1260.2350273759823 0.0030392062793967735 1237.4855952971814 0.0016299532054707508 8.8466055533254959e-05 -0.00049504004649773164
decision_type=2 2 2 2 2 2 2
left_child=3 6 -3 4 -1 -5 -2
right_child=1 2 -4 5 -6 -7 -8
leaf_value=0.0011679130882490875 0.0011775396040388504 -0.00052903210236655385 -0.0017046620369173045 -0.0057750177325019414 -0.0011631832867084791 0.00034653175472104133 0.00011180028831601675
leaf_weight=4511.627049446106 788.44530545175076 12804.84934219718 1304.7865223288536 28.406630352139473 268.49001345038414 7996.5109092742205 2706.5630012303591
leaf_count=18055 3154 51241 5227 114 1074 31988 10827
internal_value=-7.21945e-06 -0.000441037 -0.00063808 0.000588944 0.00103519 0.000322878 0.000352939
internal_weight=30409.7 17604.6 14109.6 12805 4780.12 8024.92 3495.01
internal_count=121680 70449 56468 51231 19129 32102 13981
is_linear=0
shrinkage=0.007282


Tree=61
num_leaves=8
num_cat=0
split_feature=3 14 15 18 10 3 9
split_gain=91.1613 23.8156 18.1101 16.3787 16.7481 12.1281 9.516
threshold=-0.00022854013581614468 -0.058537910366976274 1.1271930897713181e-07 0.71123458786828786 0.00067543024947825769 -0.00019100927397724282 0.00012384175289715277
decision_type=2 2 2 2 2 2 2
left_child=3 5 -3 4 -1 -2 -5
right_child=1 2 -4 6 -6 -7 -8
leaf_value=-0.00031251736463437169 -0.0018286997307687691 -0.0020761582171024578 -0.00046379611876779637 -0.0024102063373268342 0.00071564816102772614 0.00010520816958939834 0.000674892414076354
leaf_weight=2254.1515586227179 172.71659700572491 377.92177601158619 11993.667595803738 48.478162840008736 1332.243617773056 5747.5081876069307 8482.6370842158794
leaf_count=9018 691 1513 47997 194 5330 22997 33940
internal_value=-7.17083e-06 -0.000331739 -0.00051353 0.000482502 6.90155e-05 4.74595e-05 0.000656171
internal_weight=30409.3 18291.8 12371.6 12117.5 3586.4 5920.22 8531.12
internal_count=121680 73198 49510 48482 14348 23688 34134
is_linear=0
shrinkage=0.007282


Tree=62
num_leaves=8
num_cat=0
split_feature=4 11 7 4 8 7 13
split_gain=83.8754 23.5666 19.3341 16.8419 15.0732 18.2772 7.72145
threshold=-0.00024022734881482815 -6.8672769608045704e-05 0.00087961592774055163 0.0038526205498208817 0.0016299532054707508 0.00045829529789857593 0.096037126424428992
decision_type=2 2 2 2 2 2 2
left_child=4 2 -2 -3 5 -1 -6
right_child=1 3 -4 -5 6 -7 -8
leaf_value=0.00027309274924941257 0.00024550920618402177 -0.00043046107254603389 -0.0011753201705435867 -0.0014410910860473958 -0.0013316974725399967 0.00085311531040741483 0.0017257269444699648
leaf_weight=8120.8831189125776 4444.1471478790045 11456.626683488488 568.53745757043362 945.60381636023521 349.48098464310169 4479.1297731846571 44.745329186320305
leaf_count=32490 17780 45848 2275 3788 1398 17922 179
internal_value=-7.12264e-06 -0.000337531 8.30944e-05 -0.000507879 0.000435445 0.00047954 -0.00095628
internal_weight=30409.2 17414.9 5012.68 12402.2 12994.2 12600 394.226
internal_count=121680 69691 20055 49636 51989 50412 1577
is_linear=0
shrinkage=0.007282


Tree=63
num_leaves=8
num_cat=0
split_feature=12 12 12 9 9 14 14
split_gain=140.424 25.3992 22.5134 34.724 22.1575 12.8283 12.3851
threshold=-1.1792347345029495e-05 0.0030392062793967735 -0.00054330615553123678 0.00024134475579415079 0.00035112636036784055 -0.068697821490129388 0.041721117483810542
decision_type=2 2 2 2 2 2 2
left_child=2 4 3 -1 -2 -3 -4
right_child=1 5 6 -5 -6 -7 -8
leaf_value=0.0029589989615170188 -0.00086452272429771984 0.00033360081177752208 -0.00013460605455845181 0.00062895920815044101 -0.00020920307703344018 -0.0016785641267623107 0.00065024753206337053
leaf_weight=347.8777678757906 3733.8674565404654 187.30003513395786 3407.8663935661316 9652.4993790388107 10273.76943820715 1229.8181080967188 1543.9642468690872
leaf_count=1392 14943 750 13634 38620 41109 4927 6177
internal_value=8.9411e-06 -0.000478354 0.000511832 0.000710751 -0.00038416 -0.00140678 0.000109827
internal_weight=30377 15424.8 14952.2 10000.4 14007.6 1417.12 4951.83
internal_count=121552 61729 59823 40012 56052 5677 19811
is_linear=0
shrinkage=0.007282


Tree=64
num_leaves=8
num_cat=0
split_feature=6 4 8 7 4 14 7
split_gain=136.554 36.0375 24.7476 20.4779 16.022 12.8186 4.04563
threshold=1238.4740242245773 -0.00024022734881482815 0.0016299532054707508 4.7913491118400918e-05 -0.00091735238684771919 0.35526878493541675 0.00067807847166007345
decision_type=2 2 2 2 2 2 2
left_child=2 5 4 -3 -1 -2 -4
right_child=1 3 6 -5 -6 -7 -8
leaf_value=0.0013820370411461965 0.00015961948098193985 -0.0015212766441129858 0.0012701536757951622 -0.00039371456911909384 0.00065007890797020586 -0.0030991134248086723 -0.00122678882796281
leaf_weight=3284.78222027421 8237.4288033246994 905.7216137945652 32.999252483248711 14442.325616031885 3100.2281757444143 59.973430901765823 313.23522533476353
leaf_count=13147 32953 3626 132 57798 12403 240 1253
internal_value=8.87728e-06 -0.000251499 0.000923746 -0.000460562 0.00102706 0.00013474 -0.000955625
internal_weight=30376.7 23645.4 6731.24 15348 6385.01 8297.4 346.234
internal_count=121552 94617 26935 61424 25550 33193 1385
is_linear=0
shrinkage=0.007282


Tree=65
num_leaves=8
num_cat=0
split_feature=6 3 14 13 6 9 15
split_gain=134.577 28.5839 20.5582 15.3279 13.8089 11.5141 8.1087
threshold=1238.4740242245773 -0.00022854013581614468 -0.076292907203902346 -0.16079491770229246 1740.8164760781949 0.0011232583503801839 7.7507381978437923e-05
decision_type=2 2 2 2 2 2 2
left_child=3 4 -3 6 -2 -5 -1
right_child=1 2 -4 5 -6 -7 -8
leaf_value=-0.001356854442119582 0.00018847960919523746 5.8736534078665478e-07 -0.00058339623506080678 0.00083324106704708975 -0.0012543068315833796 -0.00014182208354905455 0.0014526085401103995
leaf_weight=50.236094549298286 7222.8132296800613 4382.8349791318178 11674.710976734757 3586.4325990527868 364.93448692560196 771.53701408207417 2322.9111603200436
leaf_count=201 28895 17537 46725 14350 1460 3087 9297
internal_value=8.81079e-06 -0.000249673 -0.000423756 0.000917045 0.000118208 0.000659749 0.00138893
internal_weight=30376.4 23645.3 16057.5 6731.12 7587.75 4357.97 2373.15
internal_count=121552 94617 64262 26935 30355 17437 9498
is_linear=0
shrinkage=0.007282


Tree=66
num_leaves=8
num_cat=0
split_feature=12 12 18 5 12 14 10
split_gain=139.162 24.9512 23.9633 22.5179 15.2577 12.5865 10.1091
threshold=-1.1792347345029495e-05 0.0030392062793967735 0.78054547413462549 -0.093144626947719564 -0.00054330615553123678 -0.068697821490129388 0.00066173691722420578
decision_type=2 2 2 2 2 2 2
left_child=2 3 4 -2 -1 -3 -4
right_child=1 5 6 -5 -6 -7 -8
leaf_value=0.00043945735118691183 -0.0049793419417017487 0.00029642853156468924 0.00053978559103606838 -0.00037607001081742096 -0.00032156787973515368 -0.0016734375651566999 0.0010402593031372611
leaf_weight=3427.6398069709539 52.228169068694115 192.29595449566841 5709.6706059873104 13968.088583275676 2347.7168573737144 1239.1833643019199 3461.560218244791
leaf_count=13713 209 770 22845 55895 9393 4965 13851
internal_value=-3.27739e-06 -0.000487885 0.000497511 -0.000394174 0.000129672 -0.00140312 0.00072898
internal_weight=30398.4 15451.8 14946.6 14020.3 5775.36 1431.48 9171.23
internal_count=121641 61839 59802 56104 23106 5735 36696
is_linear=0
shrinkage=0.007282


Tree=67
num_leaves=8
num_cat=0
split_feature=3 5 7 7 2 7 8
split_gain=90.5259 23.0625 21.8612 21.1049 21.6473 9.14234 8.69069
threshold=-0.00022854013581614468 -0.093144626947719564 0.00026675107267685067 4.5142439267837358e-05 6.9648560892545322e-05 3.8119330050609563e-05 0.0008836688502970037
decision_type=2 2 2 2 2 2 2
left_child=1 6 -3 5 -5 -2 -1
right_child=3 2 -4 4 -6 -7 -8
leaf_value=-0.0012898769344277842 -0.0010424685529817218 8.5929879423638522e-05 0.00073667721585829655 5.5852739641353867e-05 -0.00047183096605460904 -0.0028975665841859065 -0.0067193772470982484
leaf_weight=27.743788689374924 793.29730296134949 4229.7704194933176 7796.7200703322887 6707.0135682821274 10644.19839322567 170.12982125580311 29.239828750491142
leaf_count=111 3176 16923 31197 26836 42600 681 117
internal_value=-3.25458e-06 0.000485791 0.000508013 -0.000326095 -0.00026768 -0.00137351 -0.00395941
internal_weight=30398.1 12083.5 12026.5 18314.6 17351.2 963.427 56.9836
internal_count=121641 48348 48120 73293 69436 3857 228
is_linear=0
shrinkage=0.007282


Tree=68
num_leaves=8
num_cat=0
split_feature=6 13 9 9 7 6 14
split_gain=119.679 25.4859 23.1995 15.9629 12.7942 17.8516 13.7562
threshold=1248.5191485382732 -0.0099355559360790203 8.9134500255391315e-05 0.0021023501878887148 0.001099618628410766 1113.0580836708225 0.034297538553807329
decision_type=2 2 2 2 2 2 2
left_child=4 2 -2 -3 5 -1 -6
right_child=1 3 -4 -5 6 -7 -8
leaf_value=0.0021510813459780266 -0.0031944167741392495 -0.00047653437007823415 2.9158007561789452e-05 -0.0031891072731513887 0.00041690707197996718 0.00075197355259682894 -0.0018091275083942306
leaf_weight=519.37930780649185 115.33901806175709 12078.941821485758 10030.814165174961 112.1012881398201 594.51520499587059 6756.3944920748472 190.44281378388405
leaf_count=2079 462 48342 40133 449 2379 27035 762
internal_value=-3.23238e-06 -0.000277781 -7.94951e-06 -0.000502168 0.000757073 0.000852596 -0.000120211
internal_weight=30397.9 22337.2 10146.2 12191 8060.73 7275.77 784.958
internal_count=121641 89386 40595 48791 32255 29114 3141
is_linear=0
shrinkage=0.007282


Tree=69
num_leaves=8
num_cat=0
split_feature=12 6 6 8 5 18 8
split_gain=136.898 52.6675 33.0528 27.7882 18.6203 14.9439 13.6145
threshold=-2.3054596155325378e-05 1260.2350273759823 1221.4286174193787 0.0016299532054707508 -0.093144626947719564 0.14249183436641097 0.00011287630037824996
decision_type=2 2 2 2 2 2 2
left_child=2 6 3 -1 -3 -4 -2
right_child=1 4 5 -5 -6 -7 -8
leaf_value=0.0012351208202344838 -0.0015248226916656366 -0.0046521386277829343 -0.0023442793581890313 -0.0012004948314563333 -0.00065648569711791011 0.00032425559377653517 0.00053390452466881716
leaf_weight=3714.8141247183084 176.45255173742771 57.945532903075218 107.72934250533581 260.4888676404953 12596.664647772908 10768.045111477375 2751.7861112654209
leaf_count=14869 706 232 431 1042 50419 43079 11008
internal_value=4.70871e-06 -0.000471914 0.000505012 0.00107328 -0.000675681 0.000297056 0.000406796
internal_weight=30433.9 15582.8 14851.1 3975.3 12654.6 10875.8 2928.24
internal_count=121786 62365 59421 15911 50651 43510 11714
is_linear=0
shrinkage=0.007282


Tree=70
num_leaves=8
num_cat=0
split_feature=3 1 4 8 9 8 4
split_gain=73.2487 21.2983 18.4917 15.447 19.728 15.5322 7.03827
threshold=-0.00022854013581614468 -0.00018121291182057671 0.0038526205498208817 0.00035649610438755875 0.00024134475579415079 0.0016299532054707508 0.0058170457877695378
decision_type=2 2 2 2 2 2 2
left_child=3 6 -3 4 -1 -5 -2
right_child=1 2 -4 5 -6 -7 -8
leaf_value=0.0011769188297631958 0.00023710773187825114 -0.00035313911677531206 -0.0014937432610220892 0.00071472478223573715 -0.00012423481200881292 -0.0007585331150021309 -0.0015615478491809657
leaf_weight=740.02917349338531 3879.6066033989191 13531.659447282553 795.8277799487114 7360.4835354089737 3618.2106168717146 393.69331336021423 114.08413678407669
leaf_count=2961 15523 54152 3189 29453 14476 1575 457
internal_value=4.66673e-06 -0.000285678 -0.000416839 0.000444056 9.66428e-05 0.000639108 0.00018378
internal_weight=30433.6 18321.2 14327.5 12112.4 4358.24 7754.18 3993.69
internal_count=121786 73321 57341 48465 17437 31028 15980
is_linear=0
shrinkage=0.007282


Tree=71
num_leaves=8
num_cat=0
split_feature=3 5 7 2 7 7 9
split_gain=72.1865 24.6554 20.0536 21.5655 18.8067 9.16171 4.66024
threshold=-0.00022854013581614468 -0.093144626947719564 4.5142439267837358e-05 0.00016906657000928174 0.00026675107267685067 3.8119330050609563e-05 0.0012162215436045882
decision_type=2 2 2 2 2 2 2
left_child=1 6 5 -4 -3 -2 -1
right_child=2 4 3 -5 -6 -7 -8
leaf_value=-0.002260702750109284 -0.0009682757730191334 7.1726100259942395e-05 4.827123675213895e-05 -0.00046596109082064314 0.00067491734593885181 -0.0028092516866930085 -0.006372451622520591
leaf_weight=27.742506772279739 794.74167308211327 4230.4533042311668 8074.0627699643373 9278.6328260302544 7826.168961763382 173.61140242218971 27.987490072846413
leaf_count=111 3182 16926 32307 37137 31316 695 112
internal_value=4.62895e-06 0.000440823 -0.000283603 -0.000226526 0.000463476 -0.00130179 -0.00420407
internal_weight=30433.4 12112.4 18321 17352.7 12056.6 968.353 55.73
internal_count=121786 48465 73321 69444 48242 3877 223
is_linear=0
shrinkage=0.007282


Tree=72
num_leaves=8
num_cat=0
split_feature=3 5 7 4 7 7 10
split_gain=84.2239 24.514 22.1906 21.3401 19.0319 9.39453 6.25801
threshold=-0.00022854013581614468 -0.093144626947719564 4.5142439267837358e-05 0.0018231722679839231 0.00026675107267685067 3.8119330050609563e-05 0.00090582514001058838
decision_type=2 2 2 2 2 2 2
left_child=1 6 5 -4 -3 -2 -1
right_child=2 4 3 -5 -6 -7 -8
leaf_value=-0.0017908244469815005 -0.0010630958073167571 8.2747007867045325e-05 -0.00013595426131165684 -0.00076097854823501646 0.00069016252875303866 -0.0029320184671305337 -0.0064360563640686545
leaf_weight=27.242263004183769 796.46662658452988 4221.9486135989428 13677.592123806477 3676.7635285258293 7810.6207861304283 172.59883318841457 30.23504912853241
leaf_count=109 3189 16892 54730 14721 31254 691 121
internal_value=-1.73163e-05 0.000454258 -0.000328648 -0.000268599 0.000477243 -0.00139936 -0.00411098
internal_weight=30413.5 12090 18323.4 17354.4 12032.6 969.065 57.4773
internal_count=121707 48376 73331 69451 48146 3880 230
is_linear=0
shrinkage=0.007282


Tree=73
num_leaves=8
num_cat=0
split_feature=11 13 8 9 5 8 11
split_gain=46.013 26.7162 25.4539 17.3463 15.4042 10.7645 5.10042
threshold=-0.0003085205365447978 -0.0099355559360790203 0.00046631505780884449 0.00024134475579415079 -0.093144626947719564 4.8463529017188298e-05 -0.00043323921363985502
decision_type=2 2 2 2 2 2 2
left_child=3 2 -2 6 -5 -3 -1
right_child=1 5 -4 4 -6 -7 -8
leaf_value=0.0046723362235529262 -0.00016597956120175531 -0.0019302948459329853 0.00061065209609064905 -0.0037556010330643194 0.00044487187969065377 -0.00037225190666945445 0.0018849912488742714
leaf_weight=54.222876518964767 6465.4577497243881 236.17720042169094 3414.3255131989717 41.979492694139481 7509.322354182601 12595.817729860544 95.960330665111542
leaf_count=217 25870 946 13662 168 30049 50411 384
internal_value=-1.71934e-05 -0.000182209 0.000102106 0.000468963 0.000419913 -0.000401383 0.00288732
internal_weight=30413.3 22711.8 9879.78 7701.49 7551.3 12832 150.183
internal_count=121707 90889 39532 30818 30217 51357 601
is_linear=0
shrinkage=0.007282


Tree=74
num_leaves=8
num_cat=0
split_feature=3 5 8 8 2 5 8
split_gain=82.3428 23.9852 21.0717 19.3383 18.9476 15.7495 10.1463
threshold=-0.00022854013581614468 -0.093144626947719564 4.8463529017188298e-05 0.00035649610438755875 0.00040587307986339585 -0.046935096443624223 0.00089486025437450478
decision_type=2 2 2 2 2 2 2
left_child=1 6 5 -3 -4 -2 -1
right_child=2 3 4 -5 -6 -7 -8
leaf_value=-0.0012198837324124629 0.0020178687285221813 8.3482007167388697e-05 -0.00010230964775659378 0.00069165106197869328 -0.00059345774198514578 -0.0022986550196841594 -0.007045989233981257
leaf_weight=28.241891488432884 44.942532151937485 4350.9597026705742 11224.905033543706 7681.4945069998503 6634.1524082869291 419.19133357703686 29.232160404324532
leaf_count=113 180 17408 44917 30738 26555 1679 117
internal_value=-1.707e-05 0.000449209 -0.000324909 0.000471946 -0.000284944 -0.00185061 -0.0040666
internal_weight=30413.1 12089.9 18323.2 12032.5 17859.1 464.134 57.4741
internal_count=121707 48376 73331 48146 71472 1859 230
is_linear=0
shrinkage=0.007282


Tree=75
num_leaves=8
num_cat=0
split_feature=6 4 16 14 6 14 17
split_gain=120.01 34.4092 16.4419 15.5358 14.0034 14.1663 9.90548
threshold=1254.8899193786058 -0.00024022734881482815 2.7400510249142491 0.35526878493541675 1212.807682700068 -0.048740161144086552 0.22059445960845978
decision_type=2 2 2 2 2 2 2
left_child=4 3 -3 -2 5 -1 -6
right_child=1 2 -4 -5 6 -7 -8
leaf_value=0.0015023512973588614 0.00015598829693368692 -0.00044108615866237635 -0.001838257446016113 -0.0037382217230230402 -0.00049717769161441061 0.0006497500560043324 0.00057101666204209848
leaf_weight=1891.3443542718887 7270.8821135014296 13736.462962031364 458.75925579667091 50.222076594829559 509.93404340744019 2308.3370369821787 4172.5004171431065
leaf_count=7571 29087 54981 1837 201 2040 9238 16694
internal_value=1.63951e-05 -0.000277449 -0.000486622 0.000127574 0.000728439 0.00103431 0.000453789
internal_weight=30398.4 21516.3 14195.2 7321.1 8882.12 4199.68 4682.43
internal_count=121649 86106 56818 29288 35543 16809 18734
is_linear=0
shrinkage=0.007282


Tree=76
num_leaves=8
num_cat=0
split_feature=12 6 6 12 10 14 5
split_gain=133.036 51.4011 25.6913 21.4775 20.3391 11.0991 10.6521
threshold=-0.00020219688409930619 1260.2350273759823 1221.4286174193787 0.0036303459699517393 8.8466055533254959e-05 -0.044671337015309849 -0.0085433212720857302
decision_type=2 2 2 2 2 2 2
left_child=2 5 6 -3 -4 -2 -1
right_child=1 3 4 -5 -6 -7 -8
leaf_value=0.00064265787998694316 0.0010608656384060375 -0.0005223022483186638 -0.005440891053056042 -0.0016978516281678593 0.00038350139791189474 0.00013827893349005585 0.0014212363887077691
leaf_weight=1690.2548205852509 962.908806681633 13083.536550477147 27.392285004258156 877.97485387325287 9183.4565482884645 2454.481191560626 2118.1469048261642
leaf_count=6766 3852 52364 110 3520 36739 9819 8479
internal_value=1.6272e-05 -0.000400534 0.000572853 -0.000596573 0.000364508 0.000398844 0.00107612
internal_weight=30398.2 17378.9 13019.3 13961.5 9210.85 3417.39 3808.4
internal_count=121649 69555 52094 55884 36849 13671 15245
is_linear=0
shrinkage=0.007282


Tree=77
num_leaves=8
num_cat=0
split_feature=6 4 7 9 6 13 13
split_gain=116.649 33.444 18.7178 17.2313 13.6378 15.3193 8.46122
threshold=1254.8899193786058 -0.00024022734881482815 0.00015779956264780289 0.00024134475579415079 1212.807682700068 -0.16079491770229246 -0.31986939162548378
decision_type=2 2 2 2 2 2 2
left_child=4 3 -3 -2 5 -1 -6
right_child=1 2 -4 -5 6 -7 -8
leaf_value=0.0015901854346559478 0.0011782219464399868 -0.00093696955609336944 -0.00032640603619339865 7.2101170418819308e-06 -0.00037714002307838169 0.00067878696002177585 0.0005626041946086652
leaf_weight=1569.2948497086763 737.53191192448139 3560.3729759156704 10634.473764315248 6583.5356277823448 571.27028702199459 2630.1908891946077 4111.1200635135174
leaf_count=6283 2951 14252 42566 26337 2286 10526 16448
internal_value=1.6151e-05 -0.00027355 -0.000479773 0.000125747 0.000718165 0.00102004 0.000447113
internal_weight=30397.8 21515.9 14194.8 7321.07 8881.88 4199.49 4682.39
internal_count=121649 86106 56818 29288 35543 16809 18734
is_linear=0
shrinkage=0.007282


Tree=78
num_leaves=8
num_cat=0
split_feature=3 17 17 11 18 9 9
split_gain=74.1043 16.6995 19.7223 18.7569 16.2967 12.0402 11.2067
threshold=-0.00022854013581614468 2.4710177738097352 0.22059445960845978 2.9995476723239406e-05 0.60897876852857336 0.00048145580618982859 0.00024134475579415079
decision_type=2 2 2 2 2 2 2
left_child=4 2 -2 -3 5 -1 -6
right_child=1 3 -4 -5 6 -7 -8
leaf_value=-0.00063913505137821612 -0.00097041419545453305 0.00039411261500557897 -0.00014244874147157212 -0.0016602940413850003 0.0016168665693804944 0.00037760229372268088 0.00052725846922858075
leaf_weight=1104.7866036295891 1691.1979964971542 313.86376087367535 15399.791074514389 880.4396897405386 528.55462116003036 1386.9194035232067 9078.7161160707474
leaf_count=4420 6768 1256 61632 3526 2115 5549 36330
internal_value=9.40239e-06 -0.000282993 -0.000224646 -0.00111459 0.000451519 -7.16602e-05 0.000587707
internal_weight=30384.3 18285.3 17091 1194.3 12099 2491.71 9607.27
internal_count=121596 73182 68400 4782 48414 9969 38445
is_linear=0
shrinkage=0.007282


Tree=79
num_leaves=8
num_cat=0
split_feature=4 7 4 17 7 9 9
split_gain=70.532 22.7457 23.1412 19.0443 17.6552 14.7001 11.4068
threshold=-0.00024022734881482815 4.7913491118400918e-05 0.0038526205498208817 0.21523744778517592 0.0020285903108735251 0.0010721624499223799 0.0005762305081632779
decision_type=2 2 2 2 2 2 2
left_child=3 6 -3 5 -5 -1 -2
right_child=1 2 -4 4 -6 -7 -8
leaf_value=-0.00037122640201744977 -0.0015662292208738419 -0.0001533042110021643 -0.0012079213389255318 0.00052521658651408156 -0.0017948522310143331 -0.004164688242558761 0.0019344984575088266
leaf_weight=832.35717305541039 911.68760587275028 15268.34887906909 1186.1764308363199 11913.322975218296 171.48862786591053 53.73968705534935 46.968237459659576
leaf_count=3330 3651 61102 4753 47671 686 215 188
internal_value=9.33388e-06 -0.000293336 -0.000229641 0.000415871 0.000491619 -0.000610449 -0.00138183
internal_weight=30384.1 17413.2 16454.5 12970.9 12084.8 886.097 958.656
internal_count=121596 69694 65855 51902 48357 3545 3839
is_linear=0
shrinkage=0.007282


Tree=80
num_leaves=8
num_cat=0
split_feature=12 6 6 12 17 14 14
split_gain=125.903 54.1612 27.1779 18.7655 18.1881 16.1201 11.1757
threshold=-1.1792347345029495e-05 1260.2350273759823 1221.4286174193787 0.0036303459699517393 0.21523744778517592 -0.071772549985347919 -0.044671337015309849
decision_type=2 2 2 2 2 2 2
left_child=2 6 5 -3 -4 -1 -2
right_child=1 3 4 -5 -6 -7 -8
leaf_value=0.0015449708325991282 0.0011950421806943726 -0.00058180350584647331 -0.00062309964903084177 -0.0016849692258864265 0.00039319254704268475 0.0006040456236512719 0.00017134374063378801
leaf_weight=1675.7237333655357 771.92494949698448 11656.958478689194 1023.7984721064568 878.58136056363583 9962.0314708948135 2302.8509196639061 2112.0061840415001
leaf_count=6709 3088 46657 4096 3523 39856 9218 8449
internal_value=9.26061e-06 -0.000452361 0.000485115 -0.000659491 0.000298083 0.00100089 0.000446055
internal_weight=30383.9 15419.5 14964.4 12535.5 10985.8 3978.57 2883.93
internal_count=121596 61717 59879 50180 43952 15927 11537
is_linear=0
shrinkage=0.007282


Tree=81
num_leaves=8
num_cat=0
split_feature=6 4 14 7 7 4 5
split_gain=114.823 38.543 18.993 18.1903 14.1751 16.3921 13.5211
threshold=1254.8899193786058 -0.00024022734881482815 0.35526878493541675 0.00015779956264780289 0.0018516298924061904 -0.00091735238684771919 -0.0098224888985456848
decision_type=2 2 2 2 2 2 2
left_child=4 2 -2 -3 5 -1 -6
right_child=1 3 -4 -5 6 -7 -8
leaf_value=0.0010925064324614783 0.00017516554241620908 -0.00095670576312916725 -0.0041309792851352885 -0.00035490293329593179 -0.0035262186100667656 0.0004556978680132409 0.00019331320188685399
leaf_weight=3931.2583488821983 7268.7874531149864 3565.6606239229441 50.216644793748856 10611.57564792037 76.992071971297264 4755.2601724267006 134.23748995363712
leaf_count=15738 29079 14274 201 42476 308 19025 537
internal_value=2.94118e-06 -0.00028489 0.000143789 -0.000506481 0.000698548 0.000744244 -0.0011404
internal_weight=30394 21496.2 7319 14177.2 8897.75 8686.52 211.23
internal_count=121638 86030 29280 56750 35608 34763 845
is_linear=0
shrinkage=0.007282


Tree=82
num_leaves=8
num_cat=0
split_feature=12 17 12 5 5 12 5
split_gain=125.956 23.0696 20.0251 20.6293 16.0469 15.2796 7.19811
threshold=3.3718977585751226e-05 0.21523744778517592 0.0030392062793967735 -0.093144626947719564 -0.026793280627465398 -0.00054330615553123678 0.0097699683379578791
decision_type=2 2 2 2 2 2 2
left_child=1 6 3 -2 -4 -3 -1
right_child=2 5 4 -5 -6 -7 -8
leaf_value=-0.00014526145695100025 -0.0049187556134612682 0.00071726191195610174 -0.0029992986805299424 -0.00036902871290813279 -0.00094368420213132511 0.0002117420715251563 -0.001393039164923552
leaf_weight=866.53690747916698 48.706282958388329 9421.1841574758291 240.736831843853 13492.20156365633 1181.9036736041307 4801.9795136004686 340.41817690432072
leaf_count=3467 195 37702 965 53997 4737 19213 1362
internal_value=2.91611e-06 0.000464584 -0.000472947 -0.000386373 -0.00129447 0.00054676 -0.000498879
internal_weight=30393.7 15430.1 14963.5 13540.9 1422.64 14223.2 1206.96
internal_count=121638 61744 59894 54192 5702 56915 4829
is_linear=0
shrinkage=0.007282


Tree=83
num_leaves=8
num_cat=0
split_feature=6 14 8 6 15 9 11
split_gain=112.488 22.2678 20.4944 17.6431 16.9548 13.8971 6.83952
threshold=1254.8899193786058 -0.061325974259782069 0.0016299532054707508 1121.7344346313914 1.1271930897713181e-07 0.00083714672613541112 0.0010600268154881682
decision_type=2 2 2 2 2 2 2
left_child=2 5 3 -1 -3 -2 -4
right_child=1 4 6 -5 -6 -7 -8
leaf_value=0.0018186756309051838 -8.1734230199821824e-05 -0.0018192234695262701 -0.0013962015634483842 0.00065967415662384601 -0.00040094966027444352 0.00082667048572015588 0.0013469911029910088
leaf_weight=764.65149773657322 6050.6027022153139 458.70652766525745 314.72789135575294 7766.8948079198599 13943.985171288252 1042.5544995516539 51.247015237808228
leaf_count=3062 24211 1837 1259 31082 55810 4172 205
internal_value=2.8878e-06 -0.000282002 0.000691395 0.000764129 -0.000446506 5.14656e-05 -0.000982178
internal_weight=30393.4 21495.8 8897.52 8531.55 14402.7 7093.16 365.975
internal_count=121638 86030 35608 34144 57647 28383 1464
is_linear=0
shrinkage=0.007282


Tree=84
num_leaves=8
num_cat=0
split_feature=12 6 12 10 6 3 6
split_gain=122.012 43.0258 24.5791 23.3015 21.8308 15.4119 10.9893
threshold=-0.00054330615553123678 1260.2350273759823 0.0036303459699517393 0.00021490722678102294 1238.4740242245773 -0.00095278183220285967 1628.912693188626
decision_type=2 2 2 2 2 2 2
left_child=3 5 -3 6 -5 -2 -1
right_child=1 2 -4 4 -6 -7 -8
leaf_value=0.0051229573597005498 0.0014351266714929271 -0.00043595521121112039 -0.001694170801136801 0.0010002418518712292 0.0003059849058956555 0.00014295999609745288 0.0015895660182947775
leaf_weight=84.187262877821922 557.57743898034096 15088.98610123992 868.44595228135586 4218.9078637212515 5604.075197070837 3852.2666760385036 101.21164917945862
leaf_count=337 2231 60391 3483 16891 22419 15411 405
internal_value=-5.13901e-06 -0.000328723 -0.000504749 0.000652991 0.000604499 0.000307181 0.00318415
internal_weight=30375.7 20367.3 15957.4 10008.4 9822.98 4409.84 185.399
internal_count=121568 81516 63874 40052 39310 17642 742
is_linear=0
shrinkage=0.007282


Tree=85
num_leaves=8
num_cat=0
split_feature=3 1 16 8 10 16 10
split_gain=72.298 20.1551 23.5913 15.6688 23.5807 9.22887 8.8899
threshold=-0.00022854013581614468 -0.00018121291182057671 2.7400510249142491 0.00016964139387454347 0.0002418724374227265 2.7400510249142491 0.00049222377630294962
decision_type=2 2 2 2 2 2 2
left_child=3 5 -3 6 -5 -2 -1
right_child=1 2 -4 4 -6 -7 -8
leaf_value=-0.00014639665334323157 0.0001008321935224617 -0.0003673992295251127 -0.0020398127394336552 0.0025686624414291729 0.00045689031925938396 0.002100362659337831 -0.0020561459345210253
leaf_weight=876.74264781177044 3855.1651755273342 13854.836497247219 458.67679798603058 284.13450671732426 10775.552983522415 122.20998919010162 147.9613461792469
leaf_count=3508 15427 55456 1837 1137 43122 489 592
internal_value=-5.09792e-06 -0.000293926 -0.000421423 0.0004318 0.000511801 0.000163813 -0.000426137
internal_weight=30375.3 18290.9 14313.5 12084.4 11059.7 3977.38 1024.7
internal_count=121568 73209 57293 48359 44259 15916 4100
is_linear=0
shrinkage=0.007282


Tree=86
num_leaves=8
num_cat=0
split_feature=3 2 16 7 7 16 13
split_gain=71.2488 19.438 20.4636 15.6028 14.4064 14.3176 13.121
threshold=-0.00022854013581614468 -0.00011825416510713326 2.7400510249142491 0.00026675107267685067 0.0020285903108735251 0.37991484509572299 0.35053885879833563
decision_type=2 2 2 2 2 2 2
left_child=3 5 -3 6 -5 -2 -1
right_child=1 2 -4 4 -6 -7 -8
leaf_value=0.00012515029225729579 -0.0008350064567110377 -0.00037448329499685583 -0.0019312952535786279 0.00066681225785925502 -0.0014685221161514115 0.00030245846149376499 -0.0029282691231398632
leaf_weight=4156.6169839501381 689.50317527353764 13369.389300435781 459.89172445237637 7690.2536311596632 165.972341760993 3771.9762550145388 71.481254458427429
leaf_count=16632 2759 53515 1842 30777 664 15093 286
internal_value=-5.05962e-06 -0.000291787 -0.000426682 0.000428657 0.00062069 0.000125406 7.14568e-05
internal_weight=30375.1 18290.8 13829.3 12084.3 7856.23 4461.48 4228.1
internal_count=121568 73209 55357 48359 31441 17852 16918
is_linear=0
shrinkage=0.007282


Tree=87
num_leaves=8
num_cat=0
split_feature=12 6 6 9 12 9 13
split_gain=111.444 49.9474 24.041 17.8633 17.2768 11.7037 10.0622
threshold=-1.1792347345029495e-05 1284.8415529665201 1715.9772266039292 0.00011436320193675588 0.0036303459699517393 0.00039383560185431615 -0.15193098524237683
decision_type=2 2 2 2 2 2 2
left_child=2 5 3 -1 -3 -2 -4
right_child=1 4 6 -5 -6 -7 -8
leaf_value=-0.0020912413353145975 -0.0003623817659540117 -0.00062353212366576816 -0.0015753072958754222 0.00053951549371944907 -0.0017092562453025152 0.00044503962079098176 -6.5632701988794074e-06
leaf_weight=133.32212798297405 1352.6975700557232 10065.841524854302 400.37834277749062 13944.207487508655 841.89966318011284 3163.6575839370489 470.5893945991993
leaf_count=534 5413 40292 1602 55800 3377 12658 1883
internal_value=-6.74463e-06 -0.000441025 0.000441153 0.00051397 -0.000707738 0.00020208 -0.000728452
internal_weight=30372.6 15424.1 14948.5 14077.5 10907.7 4516.36 870.968
internal_count=121559 61740 59819 56334 43669 18071 3485
is_linear=0
shrinkage=0.007282


Tree=88
num_leaves=8
num_cat=0
split_feature=2 10 5 18 10 7 7
split_gain=37.3037 22.6333 22.1746 20.9479 14.1989 12.9123 9.50644
threshold=-0.00011825416510713326 0.00066173691722420578 -0.093144626947719564 0.75618906030196864 0.00025468502076357716 4.5142439267837358e-05 0.00083769729400640319
decision_type=2 2 2 2 2 2 2
left_child=3 5 -3 6 -5 -2 -1
right_child=1 2 -4 4 -6 -7 -8
leaf_value=-2.6544670022117705e-05 -0.0011959643394396967 -0.004770990388780475 0.00017557815618066778 0.0016043034875606787 0.00042387342511539814 -0.00033340358242506197 -0.0013269433896386518
leaf_weight=3754.1222691237926 1006.0246728211641 43.946442037820816 6087.8477029502392 578.26162089407444 7854.2308474481106 10727.970331296325 319.85807813704014
leaf_count=15021 4029 176 24370 2314 31434 42935 1280
internal_value=-6.69985e-06 -0.000220291 0.000137737 0.000298168 0.000505389 -0.000407709 -0.000129736
internal_weight=30372.3 17865.8 6131.79 12506.5 8432.49 11734 4073.98
internal_count=121559 71510 24546 50049 33748 46964 16301
is_linear=0
shrinkage=0.007282


Tree=89
num_leaves=8
num_cat=0
split_feature=3 14 13 7 17 3 13
split_gain=59.8185 23.0865 21.6705 18.9143 12.0012 11.0338 3.45853
threshold=-0.00055056429168475114 -0.061325974259782069 -0.37161190025286761 0.0020285903108735251 0.2051206742289293 -0.0026001279817581733 -0.1240040748148814
decision_type=2 2 2 2 2 2 2
left_child=3 4 -3 5 -2 -1 -5
right_child=1 2 -4 6 -6 -7 -8
leaf_value=0.0011577271848420671 -0.00090024000644065201 -0.003056680962389955 -0.00034788553979731691 -0.0031821719190288085 0.00021829209035382919 0.00043554420552752225 -0.0010040156966735455
leaf_weight=1331.5185496807098 546.75910563766956 154.17489401996136 14456.230327799916 69.995403841137886 6481.9782051891088 7244.0092829912901 87.47741824388504
leaf_count=5331 2188 617 57864 280 25939 28990 350
internal_value=-6.65485e-06 -0.000212031 -0.000377054 0.000501823 0.000130454 0.000548141 -0.00196026
internal_weight=30372.1 21639.1 14610.4 8733 7028.74 8575.53 157.473
internal_count=121559 86608 58481 34951 28127 34321 630
is_linear=0
shrinkage=0.007282


Tree=90
num_leaves=8
num_cat=0
split_feature=6 14 15 8 14 9 11
split_gain=104.369 22.1443 20.3449 19.9508 17.4734 15.2432 4.99356
threshold=1254.8899193786058 -0.061325974259782069 1.1271930897713181e-07 0.0016299532054707508 -0.050048636628670706 0.00027997857863135345 0.0010600268154881682
decision_type=2 2 2 2 2 2 2
left_child=3 5 -3 4 -1 -2 -5
right_child=1 2 -4 6 -6 -7 -8
leaf_value=0.0011142543340640402 0.00069059354275420213 -0.0019471276935879927 -0.00039579974347740145 -0.0013482463139019925 0.0004452661394310999 -0.00012664200767720628 0.00098366948286154388
leaf_weight=3600.7842552959919 1543.5891583859921 459.88427244126797 13939.706923216581 315.2234304100275 4911.9229014068842 5532.6287607997656 51.496538251638412
leaf_count=14414 6178 1842 55796 1261 19657 22138 206
internal_value=-7.17908e-06 -0.000281807 -0.000445751 0.000656605 0.000728598 5.12522e-05 -0.000992894
internal_weight=30355.2 21475.8 14399.6 8879.43 8512.71 7076.22 366.72
internal_count=121492 85954 57638 35538 34071 28316 1467
is_linear=0
shrinkage=0.007282


Tree=91
num_leaves=8
num_cat=0
split_feature=4 10 2 5 18 9 5
split_gain=60.4877 24.1216 22.2396 18.2736 18.2143 17.9183 13.7035
threshold=-0.00054656830314396023 0.0003005615895077431 -1.1313876381844365e-07 -0.093144626947719564 0.71123458786828786 8.9134500255391315e-05 -0.039150433248802005
decision_type=2 2 2 2 2 2 2
left_child=1 6 5 -4 -3 -2 -1
right_child=2 4 3 -5 -6 -7 -8
leaf_value=0.0040092756242138469 -0.0038470187854710985 -0.00016893094794740338 -0.0051508952293360579 -0.00042377544921202336 0.00053683837371312131 8.6631162916008528e-05 0.0012736615569487739
leaf_weight=110.45903429389 57.410775497555733 2672.2216030359268 39.18323877453804 11957.265652179718 6978.8616914898157 7858.6401573717594 680.93991030752659
leaf_count=442 230 10692 157 47868 27932 31446 2725
internal_value=-7.12578e-06 0.000441558 -0.000242596 -0.000440301 0.000341068 5.65508e-05 0.00166138
internal_weight=30355 10442.5 19912.5 11996.4 9651.08 7916.05 791.399
internal_count=121492 41791 79701 48025 38624 31676 3167
is_linear=0
shrinkage=0.007282


Tree=92
num_leaves=8
num_cat=0
split_feature=6 4 8 7 6 6 18
split_gain=102.399 26.0109 19.6812 17.8306 16.8686 9.76268 8.38557
threshold=1254.8899193786058 -0.00024022734881482815 0.0016299532054707508 0.00021741880635865415 1212.807682700068 1715.9772266039292 1.861221636973484
decision_type=2 2 2 2 2 2 2
left_child=2 5 4 -3 -1 -2 -4
right_child=1 3 6 -5 -6 -7 -8
leaf_value=0.0010757912784073798 0.0001569563885427244 -0.00080566078147893195 -0.00046806452523059656 -0.00026684103279195223 0.00042381973653697104 -0.00076725719031214205 -0.00325459604034147
leaf_weight=3887.7587849497795 6661.6664355099201 5105.6622720062733 299.47461381554604 9046.5877610594034 4624.756112486124 661.61910447478294 67.244611740112305
leaf_count=15566 26651 20440 1198 36216 18505 2647 269
